{"learner":{"attributes":{"scikit_learn":"{\"_estimator_type\": \"regressor\"}"},"feature_names":["temperature_2m_mean","precipitation_sum","wind_speed_10m_max","wind_direction_10m_dominant"],"feature_types":["float","float","float","float"],"gradient_booster":{"model":{"gbtree_model_param":{"num_parallel_tree":"1","num_trees":"100"},"iteration_indptr":[0,1,2,3,4,5,6,7,8,9,10,11,12,13,14,15,16,17,18,19,20,21,22,23,24,25,26,27,28,29,30,31,32,33,34,35,36,37,38,39,40,41,42,43,44,45,46,47,48,49,50,51,52,53,54,55,56,57,58,59,60,61,62,63,64,65,66,67,68,69,70,71,72,73,74,75,76,77,78,79,80,81,82,83,84,85,86,87,88,89,90,91,92,93,94,95,96,97,98,99,100],"tree_info":[0,0,0,0,0,0,0,0,0,0,0,0,0,0,0,0,0,0,0,0,0,0,0,0,0,0,0,0,0,0,0,0,0,0,0,0,0,0,0,0,0,0,0,0,0,0,0,0,0,0,0,0,0,0,0,0,0,0,0,0,0,0,0,0,0,0,0,0,0,0,0,0,0,0,0,0,0,0,0,0,0,0,0,0,0,0,0,0,0,0,0,0,0,0,0,0,0,0,0,0],"trees":[{"base_weights":[2.5549826E-7,2.3483179E0,-1.7403243E0,7.034214E-1,4.161185E0,-5.001672E-1,-3.162772E0,1.8549951E0,-1.1518904E0,1.0305208E1,3.2220254E0,2.1866727E0,-1.8379164E0,-3.361698E0,2.3681333E0,4.0611143E0,-5.431394E-1,-1.4359243E0,6.387612E0,9.2269745E0,1.3190709E1,3.7398424E0,-2.7557375E0,1.8536253E0,7.4110637E0,-3.5094428E0,8.1582004E-1,-3.1161497E0,-7.851887E0,-5.937219E0,7.9300547E0,3.334423E0,2.6638382E1,-1.4246453E0,6.282913E0,1.05383344E-1,-4.7490773E0,1.1699522E1,5.3934944E-1,3.5971828E0,1.0040709E1,3.1468549E0,-6.1870637E0,4.304377E0,-5.7535595E-1,-3.768879E0,6.594941E0,-2.647608E-1,4.184888E0,-3.2703347E0,5.636554E0,-4.369145E0,-2.960874E0,4.190709E0,-2.7974243E0,3.1989772E0,2.1323544E1,-1.1519417E0,1.3748114E0,-1.0382912E0,1.0005134E1,3.067056E-1,-9.483552E-1,-1.0929278E0,3.1488566E0,-1.7987124E0,5.2137494E-1,5.907433E-1,-1.7488701E0,4.143305E0,-2.5851765E-1,-1.0917839E0,2.6420145E0,-1.5355034E0,1.1999426E0,-1.2415177E0,3.6192153E0,1.9596118E0,-2.2731223E0,-4.637249E-1,1.7831174E0,-3.2357085E-1,5.0410633E0,-8.2394165E-1,-1.5460643E0,1.490723E-1,5.5876117E0,1.012012E0,-4.0032205E-1,2.744081E0,-7.111399E-2,-2.392672E0,-9.195358E-1,9.187612E0,-7.2712415E-1,-1.745898E0,2.390709E0,3.8328133E0,-2.8552413E-1,9.587611E0,-1.5872914E0],"categories":[],"categories_nodes":[],"categories_segments":[],"categories_sizes":[],"default_left":[0,0,0,0,0,0,0,0,0,0,0,0,0,0,0,0,0,0,0,0,0,0,0,0,0,0,0,0,0,0,0,0,0,0,0,0,0,0,0,0,0,0,0,0,0,0,0,0,0,0,0,0,0,0,0,0,0,0,0,0,0,0,0,0,0,0,0,0,0,0,0,0,0,0,0,0,0,0,0,0,0,0,0,0,0,0,0,0,0,0,0,0,0,0,0,0,0,0,0,0,0],"id":0,"left_children":[1,3,5,7,9,11,13,15,17,19,21,23,25,27,29,31,33,35,-1,37,-1,39,41,43,-1,45,47,49,51,53,55,57,59,61,63,65,67,69,71,73,-1,75,77,79,81,83,85,87,89,91,93,95,-1,-1,-1,97,99,-1,-1,-1,-1,-1,-1,-1,-1,-1,-1,-1,-1,-1,-1,-1,-1,-1,-1,-1,-1,-1,-1,-1,-1,-1,-1,-1,-1,-1,-1,-1,-1,-1,-1,-1,-1,-1,-1,-1,-1,-1,-1,-1,-1],"loss_changes":[1.1185666E4,3.4710786E3,2.7715176E3,1.3096921E3,3.163496E3,3.0268403E3,8.133384E2,2.0020416E3,1.5286603E3,2.2440146E3,1.5022822E3,2.0539814E3,2.4957773E3,7.550405E2,1.2481191E3,3.1432966E3,1.1040824E3,1.1903353E3,0E0,1.5402905E3,0E0,1.7626787E3,8.093648E2,1.6514102E3,0E0,9.292539E2,7.9474786E2,9.2532227E2,2.0985425E2,8.7202026E2,9.4563654E2,1.7370449E3,1.3275977E3,6.9161926E2,9.1647943E2,1.6040574E3,5.486432E2,1.49719E3,6.1933636E2,1.575002E3,0E0,1.0243854E3,4.9148596E2,1.3326619E3,1.2424652E3,4.6293457E2,6.510026E2,6.50493E2,1.1650867E3,6.138071E2,2.491237E3,3.1482758E2,0E0,0E0,0E0,5.289325E2,1.3012913E3,0E0,0E0,0E0,0E0,0E0,0E0,0E0,0E0,0E0,0E0,0E0,0E0,0E0,0E0,0E0,0E0,0E0,0E0,0E0,0E0,0E0,0E0,0E0,0E0,0E0,0E0,0E0,0E0,0E0,0E0,0E0,0E0,0E0,0E0,0E0,0E0,0E0,0E0,0E0,0E0,0E0,0E0,0E0,0E0],"parents":[2147483647,0,0,1,1,2,2,3,3,4,4,5,5,6,6,7,7,8,8,9,9,10,10,11,11,12,12,13,13,14,14,15,15,16,16,17,17,19,19,21,21,22,22,23,23,25,25,26,26,27,27,28,28,29,29,30,30,31,31,32,32,33,33,34,34,35,35,36,36,37,37,38,38,39,39,41,41,42,42,43,43,44,44,45,45,46,46,47,47,48,48,49,49,50,50,51,51,55,55,56,56],"right_children":[2,4,6,8,10,12,14,16,18,20,22,24,26,28,30,32,34,36,-1,38,-1,40,42,44,-1,46,48,50,52,54,56,58,60,62,64,66,68,70,72,74,-1,76,78,80,82,84,86,88,90,92,94,96,-1,-1,-1,98,100,-1,-1,-1,-1,-1,-1,-1,-1,-1,-1,-1,-1,-1,-1,-1,-1,-1,-1,-1,-1,-1,-1,-1,-1,-1,-1,-1,-1,-1,-1,-1,-1,-1,-1,-1,-1,-1,-1,-1,-1,-1,-1,-1,-1],"split_conditions":[9.518667E0,8E-1,2.0674156E1,2.0371038E1,1.5986593E1,1.2831166E1,4.1305977E1,2.1716078E2,3.7585102E1,9.399917E0,2.8582718E2,2.061766E1,1.6147831E1,3.7123665E1,1.1749917E1,1.9813087E1,8.233251E0,7.712417E0,6.387612E0,2.6240363E2,1.3190709E1,2.8365042E2,5.1040835E0,2.2171164E2,7.4110637E0,2.0456745E1,2.4643224E2,3.612398E1,1.050825E1,9.679084E0,8.5E0,5.6090076E1,4.4783333E-1,4.077E0,2.4361403E2,1.4024307E2,1.2456632E2,1.5124284E1,7.535333E0,4.370208E1,1.0040709E1,4.1332507E0,1.6520823E1,1.2181624E1,1.1400002E1,2.3517822E2,1.4841583E1,7.605514E1,1.709575E1,2.12522E1,1.970999E2,1.0397833E1,-2.960874E0,4.190709E0,-2.7974243E0,1.2356167E1,1.3824916E1,-1.1519417E0,1.3748114E0,-1.0382912E0,1.0005134E1,3.067056E-1,-9.483552E-1,-1.0929278E0,3.1488566E0,-1.7987124E0,5.2137494E-1,5.907433E-1,-1.7488701E0,4.143305E0,-2.5851765E-1,-1.0917839E0,2.6420145E0,-1.5355034E0,1.1999426E0,-1.2415177E0,3.6192153E0,1.9596118E0,-2.2731223E0,-4.637249E-1,1.7831174E0,-3.2357085E-1,5.0410633E0,-8.2394165E-1,-1.5460643E0,1.490723E-1,5.5876117E0,1.012012E0,-4.0032205E-1,2.744081E0,-7.111399E-2,-2.392672E0,-9.195358E-1,9.187612E0,-7.2712415E-1,-1.745898E0,2.390709E0,3.8328133E0,-2.8552413E-1,9.587611E0,-1.5872914E0],"split_indices":[0,1,2,2,2,0,2,3,2,0,3,2,0,2,0,2,0,0,0,3,0,3,0,3,0,2,3,2,0,0,1,3,0,0,3,3,3,2,0,3,0,0,2,2,1,3,0,3,0,2,3,0,0,0,0,0,0,0,0,0,0,0,0,0,0,0,0,0,0,0,0,0,0,0,0,0,0,0,0,0,0,0,0,0,0,0,0,0,0,0,0,0,0,0,0,0,0,0,0,0,0],"split_type":[0,0,0,0,0,0,0,0,0,0,0,0,0,0,0,0,0,0,0,0,0,0,0,0,0,0,0,0,0,0,0,0,0,0,0,0,0,0,0,0,0,0,0,0,0,0,0,0,0,0,0,0,0,0,0,0,0,0,0,0,0,0,0,0,0,0,0,0,0,0,0,0,0,0,0,0,0,0,0,0,0,0,0,0,0,0,0,0,0,0,0,0,0,0,0,0,0,0,0,0,0],"sum_hessian":[2.735E3,1.164E3,1.571E3,6.11E2,5.53E2,8.4E2,7.31E2,3.77E2,2.34E2,7.2E1,4.81E2,2.79E2,5.61E2,7.06E2,2.5E1,1.96E2,1.81E2,2.32E2,2E0,7.1E1,1E0,4.43E2,3.8E1,2.76E2,3E0,3.44E2,2.17E2,6.71E2,3.5E1,1E1,1.5E1,1.91E2,5E0,1.61E2,2E1,1.59E2,7.3E1,5.5E1,1.6E1,4.42E2,1E0,1.4E1,2.4E1,1.37E2,1.39E2,3.36E2,8E0,1.65E2,5.2E1,6.6E2,1.1E1,1.4E1,2.1E1,1E0,9E0,1.2E1,3E0,2.8E1,1.63E2,1E0,4E0,6.7E1,9.4E1,6E0,1.4E1,3.3E1,1.26E2,1E1,6.3E1,4.7E1,8E0,1.1E1,5E0,1.9E1,4.23E2,8E0,6E0,2E0,2.2E1,3E1,1.07E2,1.36E2,3E0,1.95E2,1.41E2,6E0,2E0,3.7E1,1.28E2,2.4E1,2.8E1,2.6E1,6.34E2,2E0,9E0,1.3E1,1E0,3E0,9E0,2E0,1E0],"tree_param":{"num_deleted":"0","num_feature":"4","num_nodes":"101","size_leaf_vector":"1"}},{"base_weights":[2.9541038E-2,1.1701416E0,-1.7777841E0,3.2270446E0,4.297084E-1,-2.4035524E-1,-2.306214E0,1.9010249E0,6.916851E0,9.136785E-1,-2.2704535E0,-5.508166E-1,4.448966E0,-1.8897355E-1,-2.7013178E0,3.1464772E0,-9.7007114E-1,1.7938564E1,4.459399E0,2.4871743E0,1.4792396E-1,2.5032958E-1,-4.7938995E0,-1.8641356E0,3.8968974E-1,1.3876628E0,4.2153864E0,-3.0418956E0,4.776738E0,-2.876135E0,5.620641E0,-8.110274E-1,4.313716E0,-2.3814363E0,7.186427E0,2.0398808E1,-3.622488E0,2.9886005E0,1.5686682E1,2.2430232E0,2.2618229E1,5.386679E0,-4.9260312E-1,1.8318962E0,-5.4100432E0,9.980041E-1,-7.524448E0,-2.2182359E-1,-4.502447E0,6.9094796E0,-2.794106E-1,7.6767054E0,-2.959217E0,3.348464E0,-4.218848E0,9.551134E0,3.8420036E-1,-5.113631E0,-2.3711855E0,9.544823E0,-1.9728061E0,3.5172606E-1,-1.5240706E0,4.517567E0,1.0740426E0,-1.0774635E0,2.9598198E0,4.9002924E0,-1.6805292E0,9.001223E0,3.6886184E0,2.786392E-1,-1.9087589E0,3.57172E0,3.7835675E-1,5.8972425E0,-4.3637678E-1,-1.8402317E0,8.273925E-1,-1.5004975E0,1.0047624E1,2.7647328E0,-1.777466E-1,-2.4746886E-1,2.2745652E0,-8.6137545E-1,1.2304323E0,-5.969825E-1,-2.3427873E0,-7.925913E-1,3.5379536E0,-2.4726129E0,2.3579222E-1,-1.1024637E0,7.054562E-1,-1.4334922E0,-2.2685084E-1,4.176326E0,-2.680809E-2,2.0897827E-1,-2.1629498E0,-3.27593E-1,2.8946512E0,-1.1970501E0,7.932573E-1,-1.2143428E0,6.3006096E0,-1.6956863E0,-4.5817253E-1,5.0265055E0,2.4722007E-1,-2.1012466E0,7.744491E-1,-3.838326E-2,-1.7829975E0,-7.616438E-1,4.751398E0,4.316517E0,-7.58555E-1],"categories":[],"categories_nodes":[],"categories_segments":[],"categories_sizes":[],"default_left":[0,0,0,0,0,0,0,0,0,0,0,0,0,0,0,0,0,0,0,0,0,0,0,0,0,0,0,0,0,0,0,0,0,0,0,0,0,0,0,0,0,0,0,0,0,0,0,0,0,0,0,0,0,0,0,0,0,0,0,0,0,0,0,0,0,0,0,0,0,0,0,0,0,0,0,0,0,0,0,0,0,0,0,0,0,0,0,0,0,0,0,0,0,0,0,0,0,0,0,0,0,0,0,0,0,0,0,0,0,0,0,0,0,0,0,0,0,0,0],"id":1,"left_children":[1,3,5,7,9,11,13,15,17,19,21,23,25,27,29,31,33,35,37,39,41,43,45,47,49,51,-1,53,55,57,59,61,63,65,67,69,71,73,75,77,79,81,83,85,87,89,91,93,95,97,99,101,103,105,107,109,111,113,115,117,-1,-1,-1,-1,-1,-1,-1,-1,-1,-1,-1,-1,-1,-1,-1,-1,-1,-1,-1,-1,-1,-1,-1,-1,-1,-1,-1,-1,-1,-1,-1,-1,-1,-1,-1,-1,-1,-1,-1,-1,-1,-1,-1,-1,-1,-1,-1,-1,-1,-1,-1,-1,-1,-1,-1,-1,-1,-1,-1],"loss_changes":[5.6421694E3,2.554206E3,8.5980225E2,2.1592349E3,1.6159696E3,3.984426E2,6.586743E2,1.175919E3,3.0889883E3,1.2623794E3,1.1970792E3,3.1693375E2,4.8022705E2,1.785379E3,9.8216797E2,1.0613303E3,1.1682938E3,1.1878486E3,1.554887E3,1.6351187E3,2.3716821E3,8.60375E2,1.4941265E3,4.626248E2,6.562896E2,4.05445E2,0E0,6.158187E2,9.610293E2,7.2338916E2,7.3283374E2,4.547469E2,1.3412273E3,1.3100239E3,1.8462733E3,1.1099609E3,4.332162E1,1.325094E3,7.7730225E2,1.4836158E3,1.3688536E3,1.7683606E3,1.6966044E3,8.123266E2,1.5677905E2,1.2492764E3,3.8814307E2,6.039969E2,3.875818E1,6.8826746E2,9.3170746E2,1.1429428E2,6.254226E1,1.7824299E3,2.5372876E2,1.3693058E3,4.2394135E2,4.914939E2,1.6671128E3,6.796397E2,0E0,0E0,0E0,0E0,0E0,0E0,0E0,0E0,0E0,0E0,0E0,0E0,0E0,0E0,0E0,0E0,0E0,0E0,0E0,0E0,0E0,0E0,0E0,0E0,0E0,0E0,0E0,0E0,0E0,0E0,0E0,0E0,0E0,0E0,0E0,0E0,0E0,0E0,0E0,0E0,0E0,0E0,0E0,0E0,0E0,0E0,0E0,0E0,0E0,0E0,0E0,0E0,0E0,0E0,0E0,0E0,0E0,0E0,0E0],"parents":[2147483647,0,0,1,1,2,2,3,3,4,4,5,5,6,6,7,7,8,8,9,9,10,10,11,11,12,12,13,13,14,14,15,15,16,16,17,17,18,18,19,19,20,20,21,21,22,22,23,23,24,24,25,25,27,27,28,28,29,29,30,30,31,31,32,32,33,33,34,34,35,35,36,36,37,37,38,38,39,39,40,40,41,41,42,42,43,43,44,44,45,45,46,46,47,47,48,48,49,49,50,50,51,51,52,52,53,53,54,54,55,55,56,56,57,57,58,58,59,59],"right_children":[2,4,6,8,10,12,14,16,18,20,22,24,26,28,30,32,34,36,38,40,42,44,46,48,50,52,-1,54,56,58,60,62,64,66,68,70,72,74,76,78,80,82,84,86,88,90,92,94,96,98,100,102,104,106,108,110,112,114,116,118,-1,-1,-1,-1,-1,-1,-1,-1,-1,-1,-1,-1,-1,-1,-1,-1,-1,-1,-1,-1,-1,-1,-1,-1,-1,-1,-1,-1,-1,-1,-1,-1,-1,-1,-1,-1,-1,-1,-1,-1,-1,-1,-1,-1,-1,-1,-1,-1,-1,-1,-1,-1,-1,-1,-1,-1,-1,-1,-1],"split_conditions":[1.2131167E1,1.7451878E2,1E-1,3.1999996E0,2.8582718E2,2.0437416E1,1.3755579E1,1.9862083E1,4.5E0,6.829083E0,1.7477621E1,1.22332085E2,2.1246222E2,1.6147831E1,1.9172832E1,1.1966953E1,1.4024307E2,9.518667E0,3.5346058E1,6.787417E0,1.5124284E1,3.3222046E2,5.1040835E0,7.605514E1,1.8656903E2,7.605514E1,4.2153864E0,1.3118667E1,1.7762415E1,4E-1,2.0523157E1,2E-1,1.2413476E1,2.8805622E1,1.9000002E0,1.8844202E1,1.0708251E1,1.5844089E1,4.065291E1,7.999167E-1,1E-1,9.710334E0,1.45E1,2.9801886E2,1.3324863E1,4.493667E0,3.5356845E2,1.4664502E1,1.1493602E2,1.5035333E1,2.3281315E1,1.2641076E1,2.0946509E2,1.2674918E1,2.6165002E2,1.0000001E0,3E-1,1.4332837E2,3.2463742E2,2.0437416E1,-1.9728061E0,3.5172606E-1,-1.5240706E0,4.517567E0,1.0740426E0,-1.0774635E0,2.9598198E0,4.9002924E0,-1.6805292E0,9.001223E0,3.6886184E0,2.786392E-1,-1.9087589E0,3.57172E0,3.7835675E-1,5.8972425E0,-4.3637678E-1,-1.8402317E0,8.273925E-1,-1.5004975E0,1.0047624E1,2.7647328E0,-1.777466E-1,-2.4746886E-1,2.2745652E0,-8.6137545E-1,1.2304323E0,-5.969825E-1,-2.3427873E0,-7.925913E-1,3.5379536E0,-2.4726129E0,2.3579222E-1,-1.1024637E0,7.054562E-1,-1.4334922E0,-2.2685084E-1,4.176326E0,-2.680809E-2,2.0897827E-1,-2.1629498E0,-3.27593E-1,2.8946512E0,-1.1970501E0,7.932573E-1,-1.2143428E0,6.3006096E0,-1.6956863E0,-4.5817253E-1,5.0265055E0,2.4722007E-1,-2.1012466E0,7.744491E-1,-3.838326E-2,-1.7829975E0,-7.616438E-1,4.751398E0,4.316517E0,-7.58555E-1],"split_indices":[0,3,1,1,3,0,2,2,1,0,2,3,3,0,0,2,3,0,2,0,2,3,0,3,3,3,0,0,0,1,2,1,2,2,1,2,0,2,2,0,1,0,1,3,2,0,3,0,3,0,2,2,3,0,3,1,1,3,3,0,0,0,0,0,0,0,0,0,0,0,0,0,0,0,0,0,0,0,0,0,0,0,0,0,0,0,0,0,0,0,0,0,0,0,0,0,0,0,0,0,0,0,0,0,0,0,0,0,0,0,0,0,0,0,0,0,0,0,0],"split_type":[0,0,0,0,0,0,0,0,0,0,0,0,0,0,0,0,0,0,0,0,0,0,0,0,0,0,0,0,0,0,0,0,0,0,0,0,0,0,0,0,0,0,0,0,0,0,0,0,0,0,0,0,0,0,0,0,0,0,0,0,0,0,0,0,0,0,0,0,0,0,0,0,0,0,0,0,0,0,0,0,0,0,0,0,0,0,0,0,0,0,0,0,0,0,0,0,0,0,0,0,0,0,0,0,0,0,0,0,0,0,0,0,0,0,0,0,0,0,0],"sum_hessian":[2.735E3,1.677E3,1.058E3,4.43E2,1.234E3,2.71E2,7.87E2,3.27E2,1.16E2,1.047E3,1.87E2,2.55E2,1.6E1,1.24E2,6.63E2,2.28E2,9.9E1,2E1,9.6E1,3.42E2,7.05E2,9.4E1,9.3E1,1.06E2,1.49E2,1.3E1,3E0,7.9E1,4.5E1,6.5E2,1.3E1,5.2E1,1.76E2,8.5E1,1.4E1,1.8E1,2E0,8.6E1,1E1,3.39E2,3E0,7.6E1,6.29E2,7.4E1,2E1,3E1,6.3E1,6.6E1,4E1,1.3E1,1.36E2,5E0,8E0,1.2E1,6.7E1,2.1E1,2.4E1,1.18E2,5.32E2,1E1,3E0,3.6E1,1.6E1,1E1,1.66E2,7.8E1,7E0,8E0,6E0,7E0,1.1E1,1E0,1E0,1.3E1,7.3E1,8E0,2E0,1.9E1,3.2E2,1E0,2E0,4.6E1,3E1,6.05E2,2.4E1,2.4E1,5E1,9E0,1.1E1,2.3E1,7E0,5.8E1,5E0,2.8E1,3.8E1,3.7E1,3E0,6E0,7E0,1.2E2,1.6E1,1E0,4E0,7E0,1E0,9E0,3E0,4.3E1,2.4E1,1.1E1,1E1,5E0,1.9E1,1.7E1,1.01E2,5.28E2,4E0,7E0,3E0],"tree_param":{"num_deleted":"0","num_feature":"4","num_nodes":"119","size_leaf_vector":"1"}},{"base_weights":[4.159528E-2,8.4298366E-1,-1.2282548E0,1.9124937E0,7.176582E-2,-9.510873E-1,-3.6853802E0,-1.0715939E0,2.386207E0,-9.6785E-2,8.566499E0,-1.0686867E0,7.6344643E0,-7.2981153E0,-1.7507807E0,4.4473896E0,-1.8292242E0,-3.5118253E0,2.6035628E0,1.2625247E0,-9.694637E-1,1.5770424E1,-3.3102012E0,-1.4428985E-1,-1.4423692E0,1.6067408E1,3.5544914E-1,-5.8225746E0,-2.5168633E0,1.7661509E1,-3.4890072E0,-2.4726534E0,1.1779541E1,-9.535261E-1,-8.389177E0,2.9805262E0,-5.120155E0,3.637802E0,1.3542743E0,8.096961E-1,6.845447E0,9.3881005E-1,-2.920604E0,-1.3989942E0,2.1649006E1,4.2363944E0,-1.9595398E0,2.894396E0,-4.500272E-1,-1.6438079E0,6.715772E-1,1.9967735E1,-5.15135E-1,5.726908E0,-1.934321E0,-3.2684436E0,-2.214898E0,-1.1251143E0,2.2693962E1,4.0257134E0,-4.7461686E0,-1.3023424E0,1.3107411E0,5.8751545E0,-7.6581424E-1,-5.2475786E-1,4.201407E0,-2.4603611E-1,-2.7417178E0,-1.0512718E0,1.6433333E0,1.841596E-1,-2.4114962E0,6.827981E-1,2.3501163E0,5.1519895E-1,-3.184293E0,3.5489335E0,1.646358E-1,5.3508377E0,-7.541426E-2,1.5177022E0,5.804182E-3,-1.2982087E0,-3.0414313E-1,6.270994E-1,-1.7800457E0,8.796191E0,1.418794E0,-9.399309E-1,2.8463085E0,-7.855372E-1,2.0232587E0,-9.0374583E-1,1.0441568E-1,-5.2469933E-1,1.1284298E0,3.2904484E0,-4.2035136E-1,8.356741E-1,7.070064E0,2.4643285E0,-6.334761E-1,-1.6525232E0,9.142882E-1,8.273133E0,3.073848E0,-6.892504E-1,1.7681116E0,-1.5656117E0,8.458875E-1],"categories":[],"categories_nodes":[],"categories_segments":[],"categories_sizes":[],"default_left":[0,0,0,0,0,0,0,0,0,0,0,0,0,0,0,0,0,0,0,0,0,0,0,0,0,0,0,0,0,0,0,0,0,0,0,0,0,0,0,0,0,0,0,0,0,0,0,0,0,0,0,0,0,0,0,0,0,0,0,0,0,0,0,0,0,0,0,0,0,0,0,0,0,0,0,0,0,0,0,0,0,0,0,0,0,0,0,0,0,0,0,0,0,0,0,0,0,0,0,0,0,0,0,0,0,0,0,0,0,0,0],"id":2,"left_children":[1,3,5,7,9,11,13,15,17,19,21,23,25,27,29,31,33,35,37,39,41,43,45,47,49,51,53,55,-1,57,59,61,63,65,67,69,71,73,75,77,79,81,83,85,87,89,-1,91,93,95,97,99,-1,101,-1,103,-1,-1,105,107,109,-1,-1,-1,-1,-1,-1,-1,-1,-1,-1,-1,-1,-1,-1,-1,-1,-1,-1,-1,-1,-1,-1,-1,-1,-1,-1,-1,-1,-1,-1,-1,-1,-1,-1,-1,-1,-1,-1,-1,-1,-1,-1,-1,-1,-1,-1,-1,-1,-1,-1],"loss_changes":[2.785307E3,1.3839193E3,7.177112E2,9.9631934E2,1.3982601E3,9.7036127E2,7.350664E2,4.1372614E2,7.8730005E2,1.1376426E3,1.6778213E3,3.2484253E2,7.922745E2,1.0737915E1,2.4573708E3,6.3799243E2,4.860311E2,2.4498123E2,7.522224E2,9.4249725E2,2.1771548E3,1.241469E3,2.2216803E2,2.5400136E2,2.864104E2,4.5047974E2,3.292699E2,5.1593872E1,0E0,7.316371E2,6.426231E2,1.0845365E2,7.2111176E2,9.409319E2,4.9263855E1,1.00165886E2,3.0612524E2,1.8106626E3,1.1784124E3,9.940952E2,2.188454E3,1.1212589E3,7.7082544E2,7.5692215E1,1.0295483E3,1.4582426E2,0E0,5.4824384E2,5.082198E2,3.5454736E2,1.2745597E3,2.4355774E2,0E0,1.1483757E2,0E0,1.4411768E2,0E0,0E0,2.1362793E1,1.316579E2,2.1849658E2,0E0,0E0,0E0,0E0,0E0,0E0,0E0,0E0,0E0,0E0,0E0,0E0,0E0,0E0,0E0,0E0,0E0,0E0,0E0,0E0,0E0,0E0,0E0,0E0,0E0,0E0,0E0,0E0,0E0,0E0,0E0,0E0,0E0,0E0,0E0,0E0,0E0,0E0,0E0,0E0,0E0,0E0,0E0,0E0,0E0,0E0,0E0,0E0,0E0,0E0],"parents":[2147483647,0,0,1,1,2,2,3,3,4,4,5,5,6,6,7,7,8,8,9,9,10,10,11,11,12,12,13,13,14,14,15,15,16,16,17,17,18,18,19,19,20,20,21,21,22,22,23,23,24,24,25,25,26,26,27,27,29,29,30,30,31,31,32,32,33,33,34,34,35,35,36,36,37,37,38,38,39,39,40,40,41,41,42,42,43,43,44,44,45,45,47,47,48,48,49,49,50,50,51,51,53,53,55,55,58,58,59,59,60,60],"right_children":[2,4,6,8,10,12,14,16,18,20,22,24,26,28,30,32,34,36,38,40,42,44,46,48,50,52,54,56,-1,58,60,62,64,66,68,70,72,74,76,78,80,82,84,86,88,90,-1,92,94,96,98,100,-1,102,-1,104,-1,-1,106,108,110,-1,-1,-1,-1,-1,-1,-1,-1,-1,-1,-1,-1,-1,-1,-1,-1,-1,-1,-1,-1,-1,-1,-1,-1,-1,-1,-1,-1,-1,-1,-1,-1,-1,-1,-1,-1,-1,-1,-1,-1,-1,-1,-1,-1,-1,-1,-1,-1,-1,-1],"split_conditions":[1.2131167E1,2.1191644E2,7.8999996E0,5.6090076E1,1.56E1,7.200001E0,1.3797833E1,1.0495713E1,9.47012E0,6.829083E0,2.4576343E2,1E-1,2.1479664E1,1.884981E2,1.3906169E1,2E-1,8.4E0,7.9036193E0,1.6803381E2,3.4283737E1,2.3177402E1,2.1987108E2,6.341582E0,1.2831166E1,2.8953375E2,2.5498926E2,2.2171164E2,1.0000001E1,-2.5168633E0,1.45E1,1.3896187E1,3.9966145E1,4.370208E1,7.3999996E0,1.7728332E0,3.1040833E0,4.1332507E0,3.2E0,1.71E1,8.766573E0,2.8000002E0,2.2335776E2,3.0659237E1,2.194131E2,2.9301876E1,5.7520003E0,-1.9595398E0,1.2427001E1,1.4172833E1,1.9568666E1,2.9330328E2,1.0739833E1,-5.15135E-1,2.8528723E1,-1.934321E0,1.2977203E2,-2.214898E0,-1.1251143E0,1.3824916E1,1.4729084E1,1.80895E1,-1.3023424E0,1.3107411E0,5.8751545E0,-7.6581424E-1,-5.2475786E-1,4.201407E0,-2.4603611E-1,-2.7417178E0,-1.0512718E0,1.6433333E0,1.841596E-1,-2.4114962E0,6.827981E-1,2.3501163E0,5.1519895E-1,-3.184293E0,3.5489335E0,1.646358E-1,5.3508377E0,-7.541426E-2,1.5177022E0,5.804182E-3,-1.2982087E0,-3.0414313E-1,6.270994E-1,-1.7800457E0,8.796191E0,1.418794E0,-9.399309E-1,2.8463085E0,-7.855372E-1,2.0232587E0,-9.0374583E-1,1.0441568E-1,-5.2469933E-1,1.1284298E0,3.2904484E0,-4.2035136E-1,8.356741E-1,7.070064E0,2.4643285E0,-6.334761E-1,-1.6525232E0,9.142882E-1,8.273133E0,3.073848E0,-6.892504E-1,1.7681116E0,-1.5656117E0,8.458875E-1],"split_indices":[0,3,1,3,1,1,0,2,2,0,3,1,2,3,0,1,1,2,3,2,2,3,0,0,3,3,3,1,0,1,2,3,3,1,0,0,0,1,1,2,1,3,2,3,2,0,0,0,0,0,3,2,0,2,0,3,0,0,0,0,0,0,0,0,0,0,0,0,0,0,0,0,0,0,0,0,0,0,0,0,0,0,0,0,0,0,0,0,0,0,0,0,0,0,0,0,0,0,0,0,0,0,0,0,0,0,0,0,0,0,0],"split_type":[0,0,0,0,0,0,0,0,0,0,0,0,0,0,0,0,0,0,0,0,0,0,0,0,0,0,0,0,0,0,0,0,0,0,0,0,0,0,0,0,0,0,0,0,0,0,0,0,0,0,0,0,0,0,0,0,0,0,0,0,0,0,0,0,0,0,0,0,0,0,0,0,0,0,0,0,0,0,0,0,0,0,0,0,0,0,0,0,0,0,0,0,0,0,0,0,0,0,0,0,0,0,0,0,0,0,0,0,0,0,0],"sum_hessian":[2.735E3,1.677E3,1.058E3,7.02E2,9.75E2,9.52E2,1.06E2,9.6E1,6.06E2,9.57E2,1.8E1,9.4E2,1.2E1,3.6E1,7E1,1.1E1,8.5E1,2.1E1,5.85E2,3.74E2,5.83E2,1.1E1,7E0,2.71E2,6.69E2,5E0,7E0,1.8E1,1.8E1,5E0,6.5E1,6E0,5E0,7.6E1,9E0,4E0,1.7E1,3.19E2,2.66E2,3.47E2,2.7E1,2.95E2,2.88E2,3E0,8E0,2E0,5E0,2.4E1,2.47E2,6.11E2,5.8E1,4E0,1E0,4E0,3E0,8E0,1E1,1E0,4E0,9E0,5.6E1,5E0,1E0,3E0,2E0,7.3E1,3E0,1E0,8E0,1E0,3E0,6E0,1.1E1,2.42E2,7.7E1,2.59E2,7E0,7E0,3.4E2,1E1,1.7E1,5.3E1,2.42E2,1.65E2,1.23E2,2E0,1E0,5E0,3E0,1E0,1E0,1E1,1.4E1,5.8E1,1.89E2,6E2,1.1E1,9E0,4.9E1,1E0,3E0,3E0,1E0,6E0,2E0,2E0,2E0,2E0,7E0,5.3E1,3E0],"tree_param":{"num_deleted":"0","num_feature":"4","num_nodes":"111","size_leaf_vector":"1"}},{"base_weights":[4.328504E-2,8.818934E-1,-5.7823026E-1,-1.445721E-1,2.014231E0,3.805697E-1,-9.8255336E-1,2.445985E-2,-7.3663983E0,1.624083E1,1.7760376E0,-7.294922E-2,5.8122253E0,-7.7798676E-1,-4.8774905E0,-4.5167956E0,2.550587E-1,-5.188926E-1,-2.3000836E0,8.604331E0,5.24051E0,1.596056E0,2.0930828E1,1.2221195E0,-7.3151046E-1,2.0056253E1,2.2948778E0,-8.38052E-1,7.165282E0,-5.697323E0,-1.0802217E0,-5.07451E0,2.375462E-1,2.0842009E0,-3.105918E-1,1.7304686E1,-5.117749E0,6.4554334E0,1.2784961E0,1.1537579E1,-3.5738819E0,6.0493917E0,1.2579891E-1,-3.0514956E0,6.440139E-1,7.7314754E0,1.017364E1,8.072759E0,-3.2653155E0,-5.718487E-1,-2.3982341E0,1.6750713E1,-1.9361203E0,-6.0969305E0,1.9294974E0,4.5789824E0,-4.2408986E0,-2.8493676E-1,-1.8034075E0,-1.1286101E0,1.8354429E0,2.678316E-1,5.066336E0,9.3643844E-1,-2.8545484E-1,1.2665505E0,6.5205584E0,-2.198582E0,2.272233E-1,-8.980373E-1,2.5998168E0,1.1068476E0,1.6539922E-1,-1.4349309E0,-1.7331591E-1,-3.3296955E-1,4.1534324E0,-2.2260705E-1,1.5254048E0,4.482982E-1,-1.0924304E0,-6.0680695E-2,1.473114E0,-1.1845058E0,3.4915564E0,1.849488E-2,4.0219946E0,-1.4609188E0,1.5931157E0,-2.3069672E-1,9.7620624E-1,-1.4951946E-1,-1.1322808E0,-1.9270762E0,7.985003E0,-1.622694E0,1.7932979E0,-8.986027E-1,-1.9556807E0,2.156396E0,-1.2881219E0,-1.6740122E0,1.1717068E0],"categories":[],"categories_nodes":[],"categories_segments":[],"categories_sizes":[],"default_left":[0,0,0,0,0,0,0,0,0,0,0,0,0,0,0,0,0,0,0,0,0,0,0,0,0,0,0,0,0,0,0,0,0,0,0,0,0,0,0,0,0,0,0,0,0,0,0,0,0,0,0,0,0,0,0,0,0,0,0,0,0,0,0,0,0,0,0,0,0,0,0,0,0,0,0,0,0,0,0,0,0,0,0,0,0,0,0,0,0,0,0,0,0,0,0,0,0,0,0,0,0,0,0],"id":3,"left_children":[1,3,5,7,9,11,13,15,17,19,21,23,25,27,29,31,33,-1,-1,-1,35,37,39,41,43,45,47,49,51,53,55,57,59,61,63,65,67,69,71,-1,73,75,77,79,81,83,-1,85,87,89,91,93,95,97,99,-1,101,-1,-1,-1,-1,-1,-1,-1,-1,-1,-1,-1,-1,-1,-1,-1,-1,-1,-1,-1,-1,-1,-1,-1,-1,-1,-1,-1,-1,-1,-1,-1,-1,-1,-1,-1,-1,-1,-1,-1,-1,-1,-1,-1,-1,-1,-1],"loss_changes":[1.4265349E3,1.354377E3,6.0978326E2,7.4726044E2,1.8484858E3,1.1508125E3,8.774376E2,6.284298E2,1.0456543E1,1.0813188E3,1.8489331E3,3.6933908E2,1.7576165E3,5.0792908E2,1.6506738E2,7.810077E1,5.914355E2,0E0,0E0,0E0,8.3834424E2,8.281304E2,2.2850107E3,7.7190576E2,9.1783844E2,9.3320386E2,9.901443E2,4.326438E2,7.303583E2,1.4891223E2,6.3295154E2,9.476068E1,1.17096306E2,2.3659746E3,9.642331E2,8.21286E1,5.7507324E1,7.1524304E2,8.920942E2,0E0,8.105774E0,1.52222E3,5.201846E2,2.9238953E2,6.5450323E2,2.7412106E2,0E0,6.401291E2,2.4600365E2,6.767867E2,3.9548346E2,1.0855219E3,1.6975026E2,3.6755737E1,1.290378E2,0E0,1.3088828E2,0E0,0E0,0E0,0E0,0E0,0E0,0E0,0E0,0E0,0E0,0E0,0E0,0E0,0E0,0E0,0E0,0E0,0E0,0E0,0E0,0E0,0E0,0E0,0E0,0E0,0E0,0E0,0E0,0E0,0E0,0E0,0E0,0E0,0E0,0E0,0E0,0E0,0E0,0E0,0E0,0E0,0E0,0E0,0E0,0E0,0E0],"parents":[2147483647,0,0,1,1,2,2,3,3,4,4,5,5,6,6,7,7,8,8,9,9,10,10,11,11,12,12,13,13,14,14,15,15,16,16,20,20,21,21,22,22,23,23,24,24,25,25,26,26,27,27,28,28,29,29,30,30,31,31,32,32,33,33,34,34,35,35,36,36,37,37,38,38,40,40,41,41,42,42,43,43,44,44,45,45,47,47,48,48,49,49,50,50,51,51,52,52,53,53,54,54,56,56],"right_children":[2,4,6,8,10,12,14,16,18,20,22,24,26,28,30,32,34,-1,-1,-1,36,38,40,42,44,46,48,50,52,54,56,58,60,62,64,66,68,70,72,-1,74,76,78,80,82,84,-1,86,88,90,92,94,96,98,100,-1,102,-1,-1,-1,-1,-1,-1,-1,-1,-1,-1,-1,-1,-1,-1,-1,-1,-1,-1,-1,-1,-1,-1,-1,-1,-1,-1,-1,-1,-1,-1,-1,-1,-1,-1,-1,-1,-1,-1,-1,-1,-1,-1,-1,-1,-1,-1],"split_conditions":[9.518667E0,8E-1,1.5844089E1,9.354085E0,8.000001E-1,1.5463244E1,2.9330328E2,7.999167E-1,1.2979984E1,5.9374166E0,9.495749E0,1.3118667E1,1.1591584E1,2.8953375E2,5.3999996E0,2E-1,4.29575E0,-5.188926E-1,-2.3000836E0,8.604331E0,2.004201E2,2.9561665E0,2.3110207E1,8.6441696E1,1.51936655E1,1.1274917E1,2.0798994E2,1.665825E1,1.3E0,1.6485336E1,5.8E0,1.0239453E1,2.6437543E2,2.8174456E1,1.2413476E1,7.0978336E0,8.066583E0,5.6090076E1,1.9376562E1,1.1537579E1,2.3999999E0,6.946916E1,1.2674918E1,9.746631E0,2.7520453E2,1.0102001E1,1.017364E1,7.701721E1,3.0112656E2,1.6147831E1,2.0523157E1,5E-1,1.1472835E1,1.6645864E1,1.6602001E1,4.5789824E0,1.5312415E1,-2.8493676E-1,-1.8034075E0,-1.1286101E0,1.8354429E0,2.678316E-1,5.066336E0,9.3643844E-1,-2.8545484E-1,1.2665505E0,6.5205584E0,-2.198582E0,2.272233E-1,-8.980373E-1,2.5998168E0,1.1068476E0,1.6539922E-1,-1.4349309E0,-1.7331591E-1,-3.3296955E-1,4.1534324E0,-2.2260705E-1,1.5254048E0,4.482982E-1,-1.0924304E0,-6.0680695E-2,1.473114E0,-1.1845058E0,3.4915564E0,1.849488E-2,4.0219946E0,-1.4609188E0,1.5931157E0,-2.3069672E-1,9.7620624E-1,-1.4951946E-1,-1.1322808E0,-1.9270762E0,7.985003E0,-1.622694E0,1.7932979E0,-8.986027E-1,-1.9556807E0,2.156396E0,-1.2881219E0,-1.6740122E0,1.1717068E0],"split_indices":[0,1,2,0,1,2,3,0,2,0,0,0,0,3,1,1,0,0,0,0,3,0,2,3,0,0,3,0,1,0,1,2,3,2,2,0,0,3,2,0,1,3,0,2,3,0,0,3,3,0,2,1,0,2,0,0,0,0,0,0,0,0,0,0,0,0,0,0,0,0,0,0,0,0,0,0,0,0,0,0,0,0,0,0,0,0,0,0,0,0,0,0,0,0,0,0,0,0,0,0,0,0,0],"split_type":[0,0,0,0,0,0,0,0,0,0,0,0,0,0,0,0,0,0,0,0,0,0,0,0,0,0,0,0,0,0,0,0,0,0,0,0,0,0,0,0,0,0,0,0,0,0,0,0,0,0,0,0,0,0,0,0,0,0,0,0,0,0,0,0,0,0,0,0,0,0,0,0,0,0,0,0,0,0,0,0,0,0,0,0,0,0,0,0,0,0,0,0,0,0,0,0,0,0,0,0,0,0,0],"sum_hessian":[2.735E3,1.164E3,1.571E3,6.11E2,5.53E2,4.66E2,1.105E3,5.98E2,1.3E1,8E0,5.45E2,4.31E2,3.5E1,1.051E3,5.4E1,2.8E1,5.7E2,1E0,1.2E1,3E0,5E0,5.41E2,4E0,1.45E2,2.86E2,6E0,2.9E1,1.044E3,7E0,4.4E1,1E1,2.5E1,3E0,1.34E2,4.36E2,2E0,3E0,3.2E1,5.09E2,2E0,2E0,2.6E1,1.19E2,1.06E2,1.8E2,4E0,2E0,1.4E1,1.5E1,8.93E2,1.51E2,3E0,4E0,4.2E1,2E0,1E0,9E0,5E0,2E1,2E0,1E0,1.25E2,9E0,6.8E1,3.68E2,1E0,1E0,2E0,1E0,6E0,2.6E1,1.17E2,3.92E2,1E0,1E0,1.4E1,1.2E1,1.02E2,1.7E1,1.2E1,9.4E1,1.51E2,2.9E1,1E0,3E0,6E0,8E0,1.3E1,2E0,8.5E2,4.3E1,6.4E1,8.7E1,1E0,2E0,3E0,1E0,6E0,3.6E1,1E0,1E0,8E0,1E0],"tree_param":{"num_deleted":"0","num_feature":"4","num_nodes":"103","size_leaf_vector":"1"}},{"base_weights":[5.2023105E-2,4.8739898E-1,-6.378851E-1,7.5696045E-1,-1.6530455E0,-7.029243E-1,4.2670403E0,1.6112278E0,1.910454E-1,-1.8468815E0,1.0915802E1,-4.930332E-1,-2.599313E0,1.8206854E0,5.4104486E0,1.3234314E0,1.5459069E1,-2.8617167E0,5.304243E-1,-3.8358681E0,-1.1467503E0,6.3372006E0,-1.4250891E0,-5.819489E-1,5.9126244E0,-5.1512027E0,-1.1725597E0,-3.807249E0,1.158683E1,7.903564E-1,5.218818E0,8.839243E0,9.711641E0,-3.9973497E-2,-5.442461E0,4.601853E-1,8.592535E0,5.2195473E0,-4.5555525E0,7.320194E0,-1.5173094E0,-5.213042E-1,-1.5548635E0,1.2428183E1,2.8687745E-1,-1.7590643E0,-3.9682353E0,9.896805E0,-2.0190327E0,4.5175333E0,-2.0493362E0,4.743343E0,6.577967E0,-1.6232513E-1,6.309968E-1,3.5875163E0,3.6266145E-1,-1.8105413E0,3.3487568E0,1.3514453E0,-1.4368587E0,-2.297004E0,-4.349213E-1,1.0878781E0,6.9435495E-3,5.201395E0,-1.3797774E0,-1.9925421E0,-8.3265835E-1,2.8038964E-1,5.8872004E0,-1.5597173E0,-2.7035528E-1,-1.6970643E-1,6.0401235E0,4.63545E0,-4.0326026E-1,1.2954547E0,-1.4471922E0,1.190347E0,-1.4136684E0,-1.8868865E0,6.835289E0,9.560544E-1,-8.78654E-1,-6.282036E-1,2.6610937E0,-1.0754067E0,3.3481247E0],"categories":[],"categories_nodes":[],"categories_segments":[],"categories_sizes":[],"default_left":[0,0,0,0,0,0,0,0,0,0,0,0,0,0,0,0,0,0,0,0,0,0,0,0,0,0,0,0,0,0,0,0,0,0,0,0,0,0,0,0,0,0,0,0,0,0,0,0,0,0,0,0,0,0,0,0,0,0,0,0,0,0,0,0,0,0,0,0,0,0,0,0,0,0,0,0,0,0,0,0,0,0,0,0,0,0,0,0,0],"id":4,"left_children":[1,3,5,7,9,11,13,15,17,19,21,23,25,27,-1,29,31,33,35,37,39,-1,-1,41,43,45,47,49,51,53,55,57,-1,59,61,63,-1,65,67,69,71,73,-1,75,77,-1,79,81,83,85,-1,-1,87,-1,-1,-1,-1,-1,-1,-1,-1,-1,-1,-1,-1,-1,-1,-1,-1,-1,-1,-1,-1,-1,-1,-1,-1,-1,-1,-1,-1,-1,-1,-1,-1,-1,-1,-1,-1],"loss_changes":[8.221215E2,9.69426E2,3.4083386E2,7.205054E2,4.7818372E2,4.1506335E2,4.3869684E2,2.3468447E3,9.318846E2,2.5461578E2,5.8011316E2,5.405392E2,3.7261523E2,7.5863586E2,0E0,1.206494E3,1.0573936E3,6.551803E2,1.5842017E3,3.365959E2,4.472199E2,0E0,0E0,2.5706747E2,4.7294806E2,7.911255E0,6.571363E2,2.5741748E2,1.7897949E0,8.9968005E2,1.8773156E3,4.129408E2,0E0,9.713484E2,4.0441565E2,1.117947E3,0E0,5.5569604E2,1.4867676E2,4.5305908E2,2.9928265E2,8.5480054E2,0E0,2.705996E2,1.8565799E2,0E0,1.1907156E2,1.1863167E3,3.1246225E2,1.04910324E2,0E0,0E0,2.2628595E2,0E0,0E0,0E0,0E0,0E0,0E0,0E0,0E0,0E0,0E0,0E0,0E0,0E0,0E0,0E0,0E0,0E0,0E0,0E0,0E0,0E0,0E0,0E0,0E0,0E0,0E0,0E0,0E0,0E0,0E0,0E0,0E0,0E0,0E0,0E0,0E0],"parents":[2147483647,0,0,1,1,2,2,3,3,4,4,5,5,6,6,7,7,8,8,9,9,10,10,11,11,12,12,13,13,15,15,16,16,17,17,18,18,19,19,20,20,23,23,24,24,25,25,26,26,27,27,28,28,29,29,30,30,31,31,33,33,34,34,35,35,37,37,38,38,39,39,40,40,41,41,43,43,44,44,46,46,47,47,48,48,49,49,52,52],"right_children":[2,4,6,8,10,12,14,16,18,20,22,24,26,28,-1,30,32,34,36,38,40,-1,-1,42,44,46,48,50,52,54,56,58,-1,60,62,64,-1,66,68,70,72,74,-1,76,78,-1,80,82,84,86,-1,-1,88,-1,-1,-1,-1,-1,-1,-1,-1,-1,-1,-1,-1,-1,-1,-1,-1,-1,-1,-1,-1,-1,-1,-1,-1,-1,-1,-1,-1,-1,-1,-1,-1,-1,-1,-1,-1],"split_conditions":[1.2131167E1,2.8582718E2,4.065291E1,2.0018072E1,1.20395E1,7.8999996E0,1.4299999E1,1.1000002E1,2.141319E1,2.9801886E2,7E-1,7.200001E0,1.3797833E1,2.1806445E2,5.4104486E0,1.8782204E1,1.1406166E1,5E-1,2.8365042E2,8.557102E0,3.0112656E2,6.3372006E0,-1.4250891E0,3.7123665E1,2.1479664E1,2.5331444E1,1.3906169E1,2.1999998E0,1.2356167E1,7.660334E0,1.9174856E1,5.29575E0,9.711641E0,2.0883104E1,3.1000001E0,4.8374166E0,8.592535E0,3.8207505E0,8.387417E0,9.943667E0,1.1525623E1,3.657855E1,-1.5548635E0,2.5498926E2,2.2171164E2,-1.7590643E0,2.5478743E1,2.1034045E2,1.3896187E1,1.2941585E1,-2.0493362E0,4.743343E0,1.3274919E1,-1.6232513E-1,6.309968E-1,3.5875163E0,3.6266145E-1,-1.8105413E0,3.3487568E0,1.3514453E0,-1.4368587E0,-2.297004E0,-4.349213E-1,1.0878781E0,6.9435495E-3,5.201395E0,-1.3797774E0,-1.9925421E0,-8.3265835E-1,2.8038964E-1,5.8872004E0,-1.5597173E0,-2.7035528E-1,-1.6970643E-1,6.0401235E0,4.63545E0,-4.0326026E-1,1.2954547E0,-1.4471922E0,1.190347E0,-1.4136684E0,-1.8868865E0,6.835289E0,9.560544E-1,-8.78654E-1,-6.282036E-1,2.6610937E0,-1.0754067E0,3.3481247E0],"split_indices":[0,3,2,2,0,1,1,1,2,3,1,1,0,3,0,2,0,1,3,2,3,0,0,2,2,2,0,1,0,0,2,0,0,2,1,0,0,0,0,0,2,2,0,3,3,0,2,3,2,0,0,0,0,0,0,0,0,0,0,0,0,0,0,0,0,0,0,0,0,0,0,0,0,0,0,0,0,0,0,0,0,0,0,0,0,0,0,0,0],"split_type":[0,0,0,0,0,0,0,0,0,0,0,0,0,0,0,0,0,0,0,0,0,0,0,0,0,0,0,0,0,0,0,0,0,0,0,0,0,0,0,0,0,0,0,0,0,0,0,0,0,0,0,0,0,0,0,0,0,0,0,0,0,0,0,0,0,0,0,0,0,0,0,0,0,0,0,0,0,0,0,0,0,0,0,0,0,0,0,0,0],"sum_hessian":[2.735E3,1.677E3,1.058E3,1.49E3,1.87E2,1.045E3,1.3E1,5.93E2,8.97E2,1.85E2,2E0,9.42E2,1.03E2,1.2E1,1E0,5.82E2,1.1E1,8.9E1,8.08E2,4.7E1,1.38E2,1E0,1E0,9.3E2,1.2E1,3.6E1,6.7E1,8E0,4E0,5.13E2,6.9E1,9E0,2E0,4.3E1,4.6E1,8.07E2,1E0,3E0,4.4E1,5E0,1.33E2,9.19E2,1.1E1,5E0,7E0,2E1,1.6E1,4E0,6.3E1,2E0,6E0,1E0,3E0,2.55E2,2.58E2,2.5E1,4.4E1,1E0,8E0,2.2E1,2.1E1,2.9E1,1.7E1,9.7E1,7.1E2,1E0,2E0,1.9E1,2.5E1,4E0,1E0,1.8E1,1.15E2,9.18E2,1E0,4E0,1E0,4E0,3E0,1E0,1.5E1,2E0,2E0,9E0,5.4E1,1E0,1E0,1E0,2E0],"tree_param":{"num_deleted":"0","num_feature":"4","num_nodes":"89","size_leaf_vector":"1"}},{"base_weights":[5.711578E-2,1.26512E0,-1.09667815E-1,2.4405987E0,-8.318974E-1,-5.1898046E0,-6.058984E-2,4.8220706E-1,5.1637263E0,-4.324772E0,1.1043271E0,7.9820937E-1,-6.49245E0,-2.6937628E0,1.20755285E-2,4.640751E-2,9.11783E0,1.2664256E1,3.714106E0,-5.2913117E0,5.440486E0,3.752714E0,-1.138609E0,6.490601E-1,-8.3318454E-1,1.8688078E0,-7.586057E0,-3.4049387E0,6.7174524E-1,8.3346033E-1,-3.339899E-1,1.0402652E0,-6.036393E0,6.1210876E0,-1.625972E0,1.9989494E1,-4.3431106E-1,2.911993E0,6.6784587E0,-2.090803E0,-8.392259E0,7.177667E0,-4.6837854E0,-4.5224724E0,1.4786712E0,-3.446753E-1,-3.025775E-2,2.3799236E0,-1.5389601E0,-5.421632E0,-2.8029997E0,-2.2858071E0,-5.8500676E0,5.8275914E0,-3.8435152E0,1.8324978E0,-2.3708269E-1,-1.931685E-1,-2.896323E0,1.0569214E-1,5.445343E0,2.6755872E0,-2.2585487E0,-6.0255053E-3,-9.66545E-1,-1.6172177E-1,6.7868853E0,-1.8678548E0,1.2054511E0,1.2461069E0,-2.3553638E0,1.3179696E0,-1.0037463E0,-4.6140873E-1,-2.7098422E0,8.895212E-1,5.456483E0,-1.7121755E-1,-1.6603156E0,-1.7305887E0,-2.5830853E-1,3.2319183E0,-2.4140747E-1,-2.093002E0,1.2860618E0,-2.1075286E-1,-1.4000089E0,-7.768643E-3,-2.1576347E0,1.9841392E0,2.8448427E-1,-1.5802307E0,-5.6742862E-2,4.139935E-1,3.8365004E0,-5.680945E-1,1.6667983E-1,-9.053765E-2,7.9661953E-1,1.5644106E0,-9.769986E-1],"categories":[],"categories_nodes":[],"categories_segments":[],"categories_sizes":[],"default_left":[0,0,0,0,0,0,0,0,0,0,0,0,0,0,0,0,0,0,0,0,0,0,0,0,0,0,0,0,0,0,0,0,0,0,0,0,0,0,0,0,0,0,0,0,0,0,0,0,0,0,0,0,0,0,0,0,0,0,0,0,0,0,0,0,0,0,0,0,0,0,0,0,0,0,0,0,0,0,0,0,0,0,0,0,0,0,0,0,0,0,0,0,0,0,0,0,0,0,0,0,0],"id":5,"left_children":[1,3,5,7,9,11,13,15,17,19,21,23,25,27,29,31,33,35,37,39,-1,41,43,-1,45,47,49,51,53,55,57,59,61,-1,63,65,67,69,-1,71,73,75,77,79,81,-1,-1,-1,-1,83,-1,85,87,89,91,93,95,97,99,-1,-1,-1,-1,-1,-1,-1,-1,-1,-1,-1,-1,-1,-1,-1,-1,-1,-1,-1,-1,-1,-1,-1,-1,-1,-1,-1,-1,-1,-1,-1,-1,-1,-1,-1,-1,-1,-1,-1,-1,-1,-1],"loss_changes":[5.513751E2,8.204101E2,5.993069E2,1.1334285E3,8.1633466E2,1.8458832E2,4.559969E2,4.7000195E2,9.2065356E2,1.0294111E3,4.6760556E2,1.293953E1,1.8791168E2,1.5546927E2,6.5974506E2,7.3173206E2,7.606897E2,1.3519836E3,1.0658367E3,3.99287E2,0E0,1.0738247E3,3.8751752E2,0E0,5.7777953E-1,1.680212E2,1.4003174E1,1.316582E2,3.017583E2,7.3625903E2,5.88678E2,1.217848E3,4.4648895E2,0E0,1.01862755E1,4.9874512E2,1.7974706E2,1.02159424E3,0E0,1.9372568E2,7.830701E1,1.1520349E3,3.5325623E1,8.1724976E1,5.392306E2,0E0,0E0,0E0,0E0,1.808794E2,0E0,1.3996854E2,1.2487488E2,1.6745117E1,3.542846E1,1.7473043E3,4.3832434E2,4.8009576E2,2.6541345E2,0E0,0E0,0E0,0E0,0E0,0E0,0E0,0E0,0E0,0E0,0E0,0E0,0E0,0E0,0E0,0E0,0E0,0E0,0E0,0E0,0E0,0E0,0E0,0E0,0E0,0E0,0E0,0E0,0E0,0E0,0E0,0E0,0E0,0E0,0E0,0E0,0E0,0E0,0E0,0E0,0E0,0E0],"parents":[2147483647,0,0,1,1,2,2,3,3,4,4,5,5,6,6,7,7,8,8,9,9,10,10,11,11,12,12,13,13,14,14,15,15,16,16,17,17,18,18,19,19,21,21,22,22,24,24,25,25,26,26,27,27,28,28,29,29,30,30,31,31,32,32,34,34,35,35,36,36,37,37,39,39,40,40,41,41,42,42,43,43,44,44,49,49,51,51,52,52,53,53,54,54,55,55,56,56,57,57,58,58],"right_children":[2,4,6,8,10,12,14,16,18,20,22,24,26,28,30,32,34,36,38,40,-1,42,44,-1,46,48,50,52,54,56,58,60,62,-1,64,66,68,70,-1,72,74,76,78,80,82,-1,-1,-1,-1,84,-1,86,88,90,92,94,96,98,100,-1,-1,-1,-1,-1,-1,-1,-1,-1,-1,-1,-1,-1,-1,-1,-1,-1,-1,-1,-1,-1,-1,-1,-1,-1,-1,-1,-1,-1,-1,-1,-1,-1,-1,-1,-1,-1,-1,-1,-1,-1,-1],"split_conditions":[5.1040835E0,2.4874672E2,5.29575E0,3.8207505E0,1E-1,1.5124284E1,9.47012E0,3.2491867E1,4.077E0,3.4825742E2,7E-1,2E-1,1.4503788E1,1.6422834E1,1.6645864E1,4.5E0,6.0999994E0,2.4192429E1,2.4740283E2,3.1040833E0,5.440486E0,4.1332507E0,2.12522E1,6.490601E-1,5.1895003E0,5.1895003E0,2.4137433E2,3E-1,1.7839497E1,1.3118667E1,2.9330328E2,2.8000002E0,1.5844089E1,6.1210876E0,1.1853334E0,9.028754E0,1E-1,3.2777794E1,6.6784587E0,1.044E1,9.47012E0,3.5894997E0,4.29575E0,4.29575E0,2.9561665E0,-3.446753E-1,-3.025775E-2,2.3799236E0,-1.5389601E0,2.3607016E2,-2.8029997E0,2.3424164E2,4.370208E1,1.7651999E1,3E-1,1.6418526E1,1.4960334E1,1.45E1,1.687398E1,1.0569214E-1,5.445343E0,2.6755872E0,-2.2585487E0,-6.0255053E-3,-9.66545E-1,-1.6172177E-1,6.7868853E0,-1.8678548E0,1.2054511E0,1.2461069E0,-2.3553638E0,1.3179696E0,-1.0037463E0,-4.6140873E-1,-2.7098422E0,8.895212E-1,5.456483E0,-1.7121755E-1,-1.6603156E0,-1.7305887E0,-2.5830853E-1,3.2319183E0,-2.4140747E-1,-2.093002E0,1.2860618E0,-2.1075286E-1,-1.4000089E0,-7.768643E-3,-2.1576347E0,1.9841392E0,2.8448427E-1,-1.5802307E0,-5.6742862E-2,4.139935E-1,3.8365004E0,-5.680945E-1,1.6667983E-1,-9.053765E-2,7.9661953E-1,1.5644106E0,-9.769986E-1],"split_indices":[0,3,0,0,1,2,2,2,0,3,1,1,3,0,2,1,1,2,3,0,0,0,2,0,0,0,3,1,0,0,3,1,2,0,0,2,1,2,0,2,2,0,0,0,0,0,0,0,0,3,0,3,3,0,1,2,0,1,2,0,0,0,0,0,0,0,0,0,0,0,0,0,0,0,0,0,0,0,0,0,0,0,0,0,0,0,0,0,0,0,0,0,0,0,0,0,0,0,0,0,0],"split_type":[0,0,0,0,0,0,0,0,0,0,0,0,0,0,0,0,0,0,0,0,0,0,0,0,0,0,0,0,0,0,0,0,0,0,0,0,0,0,0,0,0,0,0,0,0,0,0,0,0,0,0,0,0,0,0,0,0,0,0,0,0,0,0,0,0,0,0,0,0,0,0,0,0,0,0,0,0,0,0,0,0,0,0,0,0,0,0,0,0,0,0,0,0,0,0,0,0,0,0,0,0],"sum_hessian":[2.735E3,3.31E2,2.404E3,2.12E2,1.19E2,2.2E1,2.382E3,1.24E2,8.8E1,4.2E1,7.7E1,4E0,1.8E1,6.3E1,2.319E3,1.19E2,5E0,1.3E1,7.5E1,4.1E1,1E0,3.5E1,4.2E1,2E0,2E0,2E0,1.6E1,5.2E1,1.1E1,6.87E2,1.632E3,1.03E2,1.6E1,2E0,3E0,8E0,5E0,7.3E1,2E0,2.1E1,2E1,2.5E1,1E1,1.8E1,2.4E1,1E0,1E0,1E0,1E0,9E0,7E0,3.7E1,1.5E1,5E0,6E0,3.55E2,3.32E2,1.548E3,8.4E1,1E2,3E0,1E0,1.5E1,2E0,1E0,1E0,7E0,2E0,3E0,6.6E1,7E0,3E0,1.8E1,2E0,1.8E1,1.9E1,6E0,2E0,8E0,1.3E1,5E0,4E0,2E1,8E0,1E0,2.3E1,1.4E1,3E0,1.2E1,4E0,1E0,4E0,2E0,3.42E2,1.3E1,1.07E2,2.25E2,1.492E3,5.6E1,3E0,8.1E1],"tree_param":{"num_deleted":"0","num_feature":"4","num_nodes":"101","size_leaf_vector":"1"}},{"base_weights":[5.103798E-2,4.4199032E-1,-3.3287397E-1,3.6427638E-1,1.0865859E1,2.538214E-1,-9.854449E-1,-4.037758E-1,1.127245E0,2.2169996E1,-4.872277E0,-1.8617918E-1,2.0869174E0,-3.3226907E0,-6.99606E-1,8.957349E-2,-2.0361977E0,7.78061E0,1.0520694E0,6.2960052E0,8.559897E0,-1.7051355E0,-2.4393687E-1,2.4107663E-1,-2.6165085E0,1.3250194E0,8.398525E0,-3.7471607E0,3.9585297E0,-8.6950403E-1,5.018141E0,-1.532198E-1,6.4613776E0,3.9360344E0,-3.2059827E0,7.5820704E0,9.524417E-1,4.979952E0,-2.1467493E0,7.9525787E-1,-1.3141364E0,-4.3982744E0,7.932789E-2,1.8973634E0,-1.9169599E0,1.739465E1,4.68371E-1,2.3590453E0,-4.253162E0,-1.1309905E0,1.9868277E0,-1.7057675E0,7.717997E0,-7.446671E-2,4.6909833E0,3.2060149E0,-1.3423926E0,-1.6077881E0,2.509509E0,-2.3909283E0,-8.1086653E-1,4.7191796E0,5.527846E-1,-7.83797E-1,3.445107E-1,1.4090364E-1,1.6408359E0,3.2712054E-1,-9.137475E-1,-1.5611767E0,2.3519447E-1,6.356612E-1,-1.1076252E0,-6.7176354E-1,8.5759217E-1,1.8092177E0,7.3229733E0,-1.6185176E0,4.1980753E0,1.4068635E0,-4.603907E-1,-2.3696158E0,-9.569622E-1,-2.9960775E-1,-1.9978217E0,4.867402E0,2.0312694E-1,3.3033738E0,-9.803813E-1],"categories":[],"categories_nodes":[],"categories_segments":[],"categories_sizes":[],"default_left":[0,0,0,0,0,0,0,0,0,0,0,0,0,0,0,0,0,0,0,0,0,0,0,0,0,0,0,0,0,0,0,0,0,0,0,0,0,0,0,0,0,0,0,0,0,0,0,0,0,0,0,0,0,0,0,0,0,0,0,0,0,0,0,0,0,0,0,0,0,0,0,0,0,0,0,0,0,0,0,0,0,0,0,0,0,0,0,0,0],"id":6,"left_children":[1,3,5,7,9,11,13,15,17,19,21,23,25,27,29,31,33,-1,35,37,-1,-1,-1,39,41,43,45,47,-1,49,51,53,55,57,59,61,63,-1,-1,65,67,69,71,73,-1,75,77,79,81,83,85,-1,87,-1,-1,-1,-1,-1,-1,-1,-1,-1,-1,-1,-1,-1,-1,-1,-1,-1,-1,-1,-1,-1,-1,-1,-1,-1,-1,-1,-1,-1,-1,-1,-1,-1,-1,-1,-1],"loss_changes":[4.1079684E2,1.0945103E3,5.289802E2,7.897968E2,1.8870784E3,5.875666E2,4.3459692E2,5.413804E2,1.2334296E3,4.2639282E2,1.1848564E1,6.1119366E2,6.669127E2,5.4724677E2,5.7168066E2,8.008051E2,1.1024705E3,0E0,4.3191278E2,5.34602E2,0E0,0E0,0E0,4.328419E2,4.230437E2,5.729012E2,1.0619628E3,2.2631561E2,0E0,4.264817E2,5.351726E2,7.524184E2,9.257786E2,1.1152236E3,2.924171E2,4.3869562E2,4.682011E2,0E0,0E0,5.605046E2,5.529574E2,2.2535852E2,2.8473346E2,4.795921E2,0E0,4.1083643E2,7.892334E2,6.164207E1,2.2676208E2,3.744077E2,8.841111E2,0E0,5.42496E2,0E0,0E0,0E0,0E0,0E0,0E0,0E0,0E0,0E0,0E0,0E0,0E0,0E0,0E0,0E0,0E0,0E0,0E0,0E0,0E0,0E0,0E0,0E0,0E0,0E0,0E0,0E0,0E0,0E0,0E0,0E0,0E0,0E0,0E0,0E0,0E0],"parents":[2147483647,0,0,1,1,2,2,3,3,4,4,5,5,6,6,7,7,8,8,9,9,10,10,11,11,12,12,13,13,14,14,15,15,16,16,18,18,19,19,23,23,24,24,25,25,26,26,27,27,29,29,30,30,31,31,32,32,33,33,34,34,35,35,36,36,39,39,40,40,41,41,42,42,43,43,45,45,46,46,47,47,48,48,49,49,50,50,52,52],"right_children":[2,4,6,8,10,12,14,16,18,20,22,24,26,28,30,32,34,-1,36,38,-1,-1,-1,40,42,44,46,48,-1,50,52,54,56,58,60,62,64,-1,-1,66,68,70,72,74,-1,76,78,80,82,84,86,-1,88,-1,-1,-1,-1,-1,-1,-1,-1,-1,-1,-1,-1,-1,-1,-1,-1,-1,-1,-1,-1,-1,-1,-1,-1,-1,-1,-1,-1,-1,-1,-1,-1,-1,-1,-1,-1],"split_conditions":[1.0456168E1,1.0397833E1,9.000001E-1,7E-1,2.5864943E1,5E-1,1.1145751E1,3E-1,7.9036193E0,1E-1,1.9000001E0,2.6745255E2,2.8953375E2,3.182492E2,4.065291E1,1.0102001E1,4.29575E0,7.78061E0,2.5087465E1,1.30447235E1,8.559897E0,-1.7051355E0,-2.4393687E-1,2.1599998E1,3.124104E2,2.7157648E2,3.0112656E2,8.6441696E1,3.9585297E0,2.7748077E2,1.1749917E1,3.5356845E2,1.0291584E1,2.58325E0,6.755905E1,1.5124284E1,1.2979984E1,4.979952E0,-2.1467493E0,2.0371038E1,2.0905737E2,1.7543665E1,3.4105008E2,1.7451878E2,-1.9169599E0,2.9563925E2,1.3168668E1,2.2608458E1,1.8085612E2,2.7157648E2,2.796659E2,-1.7057675E0,1.4774917E1,-7.446671E-2,4.6909833E0,3.2060149E0,-1.3423926E0,-1.6077881E0,2.509509E0,-2.3909283E0,-8.1086653E-1,4.7191796E0,5.527846E-1,-7.83797E-1,3.445107E-1,1.4090364E-1,1.6408359E0,3.2712054E-1,-9.137475E-1,-1.5611767E0,2.3519447E-1,6.356612E-1,-1.1076252E0,-6.7176354E-1,8.5759217E-1,1.8092177E0,7.3229733E0,-1.6185176E0,4.1980753E0,1.4068635E0,-4.603907E-1,-2.3696158E0,-9.569622E-1,-2.9960775E-1,-1.9978217E0,4.867402E0,2.0312694E-1,3.3033738E0,-9.803813E-1],"split_indices":[0,0,1,1,2,1,0,1,2,1,1,3,3,3,2,0,0,0,3,2,0,0,0,2,3,3,3,3,0,3,0,3,0,0,3,2,2,0,0,2,3,0,3,3,0,3,0,2,3,3,3,0,0,0,0,0,0,0,0,0,0,0,0,0,0,0,0,0,0,0,0,0,0,0,0,0,0,0,0,0,0,0,0,0,0,0,0,0,0],"split_type":[0,0,0,0,0,0,0,0,0,0,0,0,0,0,0,0,0,0,0,0,0,0,0,0,0,0,0,0,0,0,0,0,0,0,0,0,0,0,0,0,0,0,0,0,0,0,0,0,0,0,0,0,0,0,0,0,0,0,0,0,0,0,0,0,0,0,0,0,0,0,0,0,0,0,0,0,0,0,0,0,0,0,0,0,0,0,0,0,0],"sum_hessian":[2.735E3,1.355E3,1.38E3,1.346E3,9E0,7.27E2,6.53E2,6.71E2,6.75E2,5E0,4E0,5.87E2,1.4E2,7E1,5.83E2,5.16E2,1.55E2,1E0,6.74E2,2E0,3E0,3E0,1E0,5E2,8.7E1,1.26E2,1.4E1,6.9E1,1E0,5.67E2,1.6E1,4.98E2,1.8E1,2.5E1,1.3E2,9E0,6.65E2,1E0,1E0,3.69E2,1.31E2,5.2E1,3.5E1,1.18E2,8E0,6E0,8E0,5E0,6.4E1,5.2E2,4.7E1,3E0,1.3E1,4.96E2,2E0,1.3E1,5E0,8E0,1.7E1,1.1E1,1.19E2,3E0,6E0,3.4E1,6.31E2,3.46E2,2.3E1,5.5E1,7.6E1,4.5E1,7E0,2.3E1,1.2E1,2.2E1,9.6E1,3E0,3E0,6E0,2E0,3E0,2E0,1.3E1,5.1E1,5.09E2,1.1E1,3E0,4.4E1,1E1,3E0],"tree_param":{"num_deleted":"0","num_feature":"4","num_nodes":"89","size_leaf_vector":"1"}},{"base_weights":[5.055985E-2,8.4649645E-2,-3.5059016E0,4.3765157E-2,6.561064E0,-5.3881174E-1,-5.645847E0,4.1292983E-1,-2.2920676E-1,-1.9733357E0,1.4366456E1,-5.0568285E0,4.410255E0,-6.544302E0,-1.5390189E0,1.831345E-1,2.6425953E0,4.5964953E-2,-1.0312121E0,-5.458312E0,3.7474627E0,7.6069546E0,5.0310725E-1,-2.0212796E0,-8.512753E-1,-6.8927636E0,-4.0668407E-1,6.2659264E-1,-1.033336E0,1.4374748E0,-2.696512E-1,-5.260988E0,5.2444987E0,-5.241531E-2,1.4157787E1,-3.3038483E0,-3.7116072E-1,-1.100462E0,-2.2086365E0,4.076593E0,-4.0624776E0,5.0457206E0,-1.2621624E0,-3.3688982E0,1.005239E0,-2.2776058E0,-7.4922276E-1,2.9370546E-1,2.6478622E0,2.3804262E-2,-1.2280554E0,4.4040087E-1,-1.8489838E0,4.3883934E0,8.670761E-1,-1.2197931E0,1.1070279E-2,-2.0523524E0,6.689291E0,-2.5181751E0,-7.435211E-1,-1.9615526E-1,1.2658851E0,4.9498845E-2,-5.4470676E-1,1.1972953E-1,-1.9478446E0,-2.594044E-1,2.5299788E0,-3.0052394E-1,-1.2154803E0],"categories":[],"categories_nodes":[],"categories_segments":[],"categories_sizes":[],"default_left":[0,0,0,0,0,0,0,0,0,0,0,0,0,0,0,0,0,0,0,0,0,0,0,0,0,0,0,0,0,0,0,0,0,0,0,0,0,0,0,0,0,0,0,0,0,0,0,0,0,0,0,0,0,0,0,0,0,0,0,0,0,0,0,0,0,0,0,0,0,0,0],"id":7,"left_children":[1,3,5,7,9,11,13,15,17,19,21,23,-1,25,27,29,31,33,35,37,39,-1,41,-1,43,45,-1,-1,-1,47,49,51,53,55,57,59,61,63,-1,-1,65,67,-1,69,-1,-1,-1,-1,-1,-1,-1,-1,-1,-1,-1,-1,-1,-1,-1,-1,-1,-1,-1,-1,-1,-1,-1,-1,-1,-1,-1],"loss_changes":[3.3200684E2,7.175446E2,1.6204257E2,2.7167407E2,1.1607936E3,9.0057623E2,4.5275177E1,5.866883E2,3.4211563E2,1.9988644E2,1.3584742E3,6.495012E1,0E0,1.2352783E1,3.484331E1,5.910529E2,2.2279778E3,1.6042571E3,5.9279614E2,4.167737E1,3.6263965E2,0E0,1.2821411E2,0E0,5.3605427E1,1.48479E1,0E0,0E0,0E0,9.26285E2,1.0212362E3,1.729784E2,1.747093E3,4.1168073E2,1.5199692E3,3.5313617E2,4.0247144E2,3.0148518E0,0E0,0E0,3.5120678E1,6.735727E1,0E0,7.89505E-1,0E0,0E0,0E0,0E0,0E0,0E0,0E0,0E0,0E0,0E0,0E0,0E0,0E0,0E0,0E0,0E0,0E0,0E0,0E0,0E0,0E0,0E0,0E0,0E0,0E0,0E0,0E0],"parents":[2147483647,0,0,1,1,2,2,3,3,4,4,5,5,6,6,7,7,8,8,9,9,10,10,11,11,13,13,14,14,15,15,16,16,17,17,18,18,19,19,20,20,22,22,24,24,25,25,29,29,30,30,31,31,32,32,33,33,34,34,35,35,36,36,37,37,40,40,41,41,43,43],"right_children":[2,4,6,8,10,12,14,16,18,20,22,24,-1,26,28,30,32,34,36,38,40,-1,42,-1,44,46,-1,-1,-1,48,50,52,54,56,58,60,62,64,-1,-1,66,68,-1,70,-1,-1,-1,-1,-1,-1,-1,-1,-1,-1,-1,-1,-1,-1,-1,-1,-1,-1,-1,-1,-1,-1,-1,-1,-1,-1,-1],"split_conditions":[2.07E1,1.83E1,2.744749E1,9.518667E0,2.194131E2,2.572174E1,3.5632725E1,8.954083E0,3.0999997E0,3.5031162E1,2.4009163E2,1.9786494E2,4.410255E0,1.5858249E1,8.954083E0,1.6803381E2,1.1812533E2,3E0,4.1E0,2.2406927E1,3.657855E1,7.6069546E0,6.341582E0,-2.0212796E0,1.7057314E1,2.1082005E2,-4.0668407E-1,6.2659264E-1,-1.033336E0,8.702002E0,8.604083E0,1.0931203E1,1.5986593E1,9.679084E0,1.7377226E1,1.0397833E1,2.738809E2,1.7728332E0,-2.2086365E0,4.076593E0,1.1853334E0,4.8374166E0,-1.2621624E0,1.4664502E1,1.005239E0,-2.2776058E0,-7.4922276E-1,2.9370546E-1,2.6478622E0,2.3804262E-2,-1.2280554E0,4.4040087E-1,-1.8489838E0,4.3883934E0,8.670761E-1,-1.2197931E0,1.1070279E-2,-2.0523524E0,6.689291E0,-2.5181751E0,-7.435211E-1,-1.9615526E-1,1.2658851E0,4.9498845E-2,-5.4470676E-1,1.1972953E-1,-1.9478446E0,-2.594044E-1,2.5299788E0,-3.0052394E-1,-1.2154803E0],"split_indices":[1,1,2,0,3,2,2,0,1,2,3,3,0,0,0,3,3,1,1,2,2,0,0,0,2,3,0,0,0,0,0,2,2,0,2,0,3,0,0,0,0,0,0,0,0,0,0,0,0,0,0,0,0,0,0,0,0,0,0,0,0,0,0,0,0,0,0,0,0,0,0],"split_type":[0,0,0,0,0,0,0,0,0,0,0,0,0,0,0,0,0,0,0,0,0,0,0,0,0,0,0,0,0,0,0,0,0,0,0,0,0,0,0,0,0,0,0,0,0,0,0,0,0,0,0,0,0,0,0,0,0,0,0,0,0,0,0,0,0,0,0,0,0,0,0],"sum_hessian":[2.735E3,2.71E3,2.5E1,2.694E3,1.6E1,1.1E1,1.4E1,1.145E3,1.549E3,8E0,8E0,9E0,2E0,1.1E1,3E0,1.039E3,1.06E2,1.154E3,3.95E2,5E0,3E0,4E0,4E0,6E0,3E0,1E1,1E0,1E0,2E0,2.75E2,7.64E2,2.6E1,8E1,1.147E3,7E0,8.8E1,3.07E2,2E0,3E0,1E0,2E0,2E0,2E0,2E0,1E0,8E0,2E0,2.6E2,1.5E1,7.01E2,6.3E1,3E0,2.3E1,1.5E1,6.5E1,2.4E1,1.123E3,2E0,5E0,1.1E1,7.7E1,2.9E2,1.7E1,1E0,1E0,1E0,1E0,1E0,1E0,1E0,1E0],"tree_param":{"num_deleted":"0","num_feature":"4","num_nodes":"71","size_leaf_vector":"1"}},{"base_weights":[4.0150084E-2,-1.2672677E0,1.10615365E-1,-1.4034721E0,1.6261662E0,6.6457206E-1,-7.924711E-2,-9.165402E-1,-4.404964E0,5.2143186E-1,9.101478E0,-2.569973E0,2.2567092E-2,-1.2520168E0,1.2584385E1,2.05396E-1,-4.725757E0,4.004111E-1,6.016565E0,-1.6107086E0,1.5452827E1,-3.606439E0,5.5466576E0,-1.4853577E-1,8.163123E-1,-3.190344E0,-2.1710081E-1,-3.401398E-1,6.0031133E0,-1.5260087E0,-6.5723914E-1,7.083418E-1,-5.472407E0,9.796599E0,-6.5624785E-1,6.6350716E-1,-1.0044065E0,-1.0741278E0,1.9221775E1,4.2874584E0,-4.1667995E0,-1.4515389E0,9.205044E0,-3.8217153E-2,-5.485301E0,7.911967E0,5.011932E-1,-2.2931781E-1,-2.2033103E0,1.5438269E0,-3.8105923E-1,1.6582203E-1,1.9322344E0,4.3307295E-1,-2.1371777E0,1.081059E0,4.209105E0,1.7783436E0,-9.4758666E-1,-2.9234363E-2,3.2781258E-1,8.189062E0,2.508002E0,4.464254E0,-2.3205247E0,-1.4569229E0,3.8025653E-1,4.7277675E0,-1.4360814E0,-2.9744036E0,4.4083293E-3,2.367901E0,-2.0040348E0,2.7365997E0,7.692056E-2],"categories":[],"categories_nodes":[],"categories_segments":[],"categories_sizes":[],"default_left":[0,0,0,0,0,0,0,0,0,0,0,0,0,0,0,0,0,0,0,0,0,0,0,0,0,0,0,0,0,0,0,0,0,0,0,0,0,0,0,0,0,0,0,0,0,0,0,0,0,0,0,0,0,0,0,0,0,0,0,0,0,0,0,0,0,0,0,0,0,0,0,0,0,0,0],"id":8,"left_children":[1,3,5,7,-1,9,11,13,15,17,19,21,23,25,27,-1,29,31,33,35,37,39,41,43,45,47,49,-1,-1,-1,-1,51,53,55,57,59,-1,-1,61,63,65,-1,67,69,71,-1,73,-1,-1,-1,-1,-1,-1,-1,-1,-1,-1,-1,-1,-1,-1,-1,-1,-1,-1,-1,-1,-1,-1,-1,-1,-1,-1,-1,-1],"loss_changes":[2.5220122E2,1.3513501E2,2.7319366E2,1.9765277E2,0E0,7.959328E2,4.9075708E2,5.5926514E2,3.425702E1,4.318524E2,7.732953E2,6.5936224E2,2.5273172E2,2.3601605E2,3.2830112E2,0E0,5.32547E0,1.1612656E3,3.5955746E2,2.1976555E1,5.7096936E2,3.1865796E2,3.8647336E2,9.011583E2,2.6444272E3,4.0756183E2,4.470772E2,0E0,0E0,0E0,0E0,5.3965393E2,3.757838E2,1.8542035E2,1.175784E2,1.0862911E0,0E0,0E0,2.9805713E2,7.519017E2,2.4599951E2,0E0,7.173801E2,7.8453705E2,5.482485E2,0E0,6.8772876E2,0E0,0E0,0E0,0E0,0E0,0E0,0E0,0E0,0E0,0E0,0E0,0E0,0E0,0E0,0E0,0E0,0E0,0E0,0E0,0E0,0E0,0E0,0E0,0E0,0E0,0E0,0E0,0E0],"parents":[2147483647,0,0,1,1,2,2,3,3,5,5,6,6,7,7,8,8,9,9,10,10,11,11,12,12,13,13,14,14,16,16,17,17,18,18,19,19,20,20,21,21,22,22,23,23,24,24,25,25,26,26,31,31,32,32,33,33,34,34,35,35,38,38,39,39,40,40,42,42,43,43,44,44,46,46],"right_children":[2,4,6,8,-1,10,12,14,16,18,20,22,24,26,28,-1,30,32,34,36,38,40,42,44,46,48,50,-1,-1,-1,-1,52,54,56,58,60,-1,-1,62,64,66,-1,68,70,72,-1,74,-1,-1,-1,-1,-1,-1,-1,-1,-1,-1,-1,-1,-1,-1,-1,-1,-1,-1,-1,-1,-1,-1,-1,-1,-1,-1,-1,-1],"split_conditions":[5.3972538E1,3.2048088E1,1.884981E2,2.4962307E1,1.6261662E0,1.8656903E2,1.960024E2,2.427265E1,7.999167E-1,3.5632725E1,1.9008545E1,3.965233E1,3.0659237E1,6.829083E0,2.3249166E0,2.05396E-1,2.9949316E1,2.946947E1,4.065291E1,1.3274919E1,6.5936675E0,6.20825E0,4.6E0,3.025928E1,1.970999E2,5.493667E0,8.604083E0,-3.401398E-1,6.0031133E0,-1.5260087E0,-6.5723914E-1,2.8082308E1,7.443692E1,9.799999E0,2.1999998E0,6.374916E0,-1.0044065E0,-1.0741278E0,1.0291584E1,2.0371038E1,1.742492E1,-1.4515389E0,1.52E1,1.970999E2,5.8832507E0,7.911967E0,3.0817343E1,-2.2931781E-1,-2.2033103E0,1.5438269E0,-3.8105923E-1,1.6582203E-1,1.9322344E0,4.3307295E-1,-2.1371777E0,1.081059E0,4.209105E0,1.7783436E0,-9.4758666E-1,-2.9234363E-2,3.2781258E-1,8.189062E0,2.508002E0,4.464254E0,-2.3205247E0,-1.4569229E0,3.8025653E-1,4.7277675E0,-1.4360814E0,-2.9744036E0,4.4083293E-3,2.367901E0,-2.0040348E0,2.7365997E0,7.692056E-2],"split_indices":[3,2,3,2,0,3,3,2,0,2,2,2,2,0,0,0,2,2,2,0,0,0,1,2,3,0,0,0,0,0,0,2,3,1,1,0,0,0,0,2,0,0,1,3,0,0,2,0,0,0,0,0,0,0,0,0,0,0,0,0,0,0,0,0,0,0,0,0,0,0,0,0,0,0,0],"split_type":[0,0,0,0,0,0,0,0,0,0,0,0,0,0,0,0,0,0,0,0,0,0,0,0,0,0,0,0,0,0,0,0,0,0,0,0,0,0,0,0,0,0,0,0,0,0,0,0,0,0,0,0,0,0,0,0,0,0,0,0,0,0,0,0,0,0,0,0,0,0,0,0,0,0,0],"sum_hessian":[2.735E3,1.39E2,2.596E3,1.37E2,2E0,6.62E2,1.934E3,1.19E2,1.8E1,6.52E2,1E1,7.5E1,1.859E3,1.17E2,2E0,1E0,1.7E1,6.39E2,1.3E1,4E0,6E0,6.7E1,8E0,1.53E3,3.29E2,4E1,7.7E1,1E0,1E0,1.4E1,3E0,6.08E2,3.1E1,8E0,5E0,2E0,2E0,1E0,5E0,4E0,6.3E1,2E0,6E0,1.5E3,3E1,3E0,3.26E2,2.6E1,1.4E1,1.2E1,6.5E1,5.93E2,1.5E1,6E0,2.5E1,4E0,4E0,1E0,4E0,1E0,1E0,2E0,3E0,2E0,2E0,5.6E1,7E0,4E0,2E0,7E0,1.493E3,2E0,2.8E1,8E0,3.18E2],"tree_param":{"num_deleted":"0","num_feature":"4","num_nodes":"75","size_leaf_vector":"1"}},{"base_weights":[3.92529E-2,-3.8664374E0,5.6437865E-2,-1.6821738E0,-1.821968E0,5.85699E-1,-7.252285E-2,3.4824815E-1,-7.537716E-1,3.8360432E-1,5.504317E0,-2.6174378E0,4.655791E-2,8.866036E0,3.3315334E-1,4.333994E-1,1.8109377E1,-5.023834E0,-7.2292936E-1,1.2537545E0,-1.1325285E-1,3.2542071E0,7.355095E-1,-1.9526811E0,5.9579694E-1,3.8332741E0,-1.7615814E0,-1.0299578E0,2.310453E1,-2.6463919E0,-9.2853E0,-2.6127336E0,5.7289414E0,2.7519522E0,-5.2070624E-1,-2.295483E0,-5.622654E-3,-1.2725034E0,2.637771E-2,1.5298513E0,8.76257E-2,2.489719E0,-3.814179E-1,9.8993845E0,1.6528805E0,6.333376E-1,-1.3677927E0,-3.1916916E0,-1.3350495E0,1.1463889E0,-1.1187581E0,5.880556E0,4.2738223E-1,-3.5138464E-1,1.3726642E0,-3.0018145E-1,1.7709112E0,8.33106E-2,-1.3474009E0,6.8476796E-1,-3.2131754E-2],"categories":[],"categories_nodes":[],"categories_segments":[],"categories_sizes":[],"default_left":[0,0,0,0,0,0,0,0,0,0,0,0,0,0,0,0,0,0,0,0,0,0,0,0,0,0,0,0,0,0,0,0,0,0,0,0,0,0,0,0,0,0,0,0,0,0,0,0,0,0,0,0,0,0,0,0,0,0,0,0,0],"id":9,"left_children":[1,3,5,-1,7,9,11,-1,-1,13,15,17,19,21,23,25,27,29,31,33,35,-1,-1,37,39,41,-1,-1,43,45,47,49,51,53,55,57,59,-1,-1,-1,-1,-1,-1,-1,-1,-1,-1,-1,-1,-1,-1,-1,-1,-1,-1,-1,-1,-1,-1,-1,-1],"loss_changes":[1.8385623E2,3.2492126E1,1.8603435E2,0E0,1.7336168E1,5.286987E2,6.644084E2,0E0,0E0,2.1701102E2,1.3344551E3,4.431441E2,4.0431567E2,1.153212E1,3.085476E2,3.6550644E2,7.249729E2,4.1107715E2,6.977635E2,6.527638E2,4.3473862E2,0E0,0E0,2.4793286E2,6.277108E2,2.6131134E2,0E0,0E0,6.8856445E2,2.7354663E2,5.083264E1,3.3031714E2,7.4835236E2,9.5689307E2,3.5425674E2,4.928266E2,4.1009875E2,0E0,0E0,0E0,0E0,0E0,0E0,0E0,0E0,0E0,0E0,0E0,0E0,0E0,0E0,0E0,0E0,0E0,0E0,0E0,0E0,0E0,0E0,0E0,0E0],"parents":[2147483647,0,0,1,1,2,2,4,4,5,5,6,6,9,9,10,10,11,11,12,12,13,13,14,14,15,15,16,16,17,17,18,18,19,19,20,20,23,23,24,24,25,25,28,28,29,29,30,30,31,31,32,32,33,33,34,34,35,35,36,36],"right_children":[2,4,6,-1,8,10,12,-1,-1,14,16,18,20,22,24,26,28,30,32,34,36,-1,-1,38,40,42,-1,-1,44,46,48,50,52,54,56,58,60,-1,-1,-1,-1,-1,-1,-1,-1,-1,-1,-1,-1,-1,-1,-1,-1,-1,-1,-1,-1,-1,-1,-1,-1],"split_conditions":[7.353611E0,5.7520003E0,1.4081478E1,-1.6821738E0,6.2087173E1,1.3979871E1,1.488242E1,3.4824815E-1,-7.537716E-1,5.150705E0,2.3904869E2,1.0537417E1,1.6645864E1,5.4144998E0,6.4123795E1,1.0623104E2,7.535333E0,7.985334E0,2.5720718E2,1.262075E1,1.7294992E1,3.2542071E0,7.355095E-1,1E-1,7.779156E1,1.4021525E1,-1.7615814E0,-1.0299578E0,8.906166E0,1.4458382E1,1.477755E1,1.1804084E1,2.6633502E2,1.5463244E1,2.0437416E1,3E-1,3.343667E0,-1.2725034E0,2.637771E-2,1.5298513E0,8.76257E-2,2.489719E0,-3.814179E-1,9.8993845E0,1.6528805E0,6.333376E-1,-1.3677927E0,-3.1916916E0,-1.3350495E0,1.1463889E0,-1.1187581E0,5.880556E0,4.2738223E-1,-3.5138464E-1,1.3726642E0,-3.0018145E-1,1.7709112E0,8.33106E-2,-1.3474009E0,6.8476796E-1,-3.2131754E-2],"split_indices":[2,0,2,0,3,2,2,0,0,3,3,0,2,0,3,3,0,0,3,0,2,0,0,1,3,2,0,0,0,2,2,0,3,2,0,1,0,0,0,0,0,0,0,0,0,0,0,0,0,0,0,0,0,0,0,0,0,0,0,0,0],"split_type":[0,0,0,0,0,0,0,0,0,0,0,0,0,0,0,0,0,0,0,0,0,0,0,0,0,0,0,0,0,0,0,0,0,0,0,0,0,0,0,0,0,0,0,0,0,0,0,0,0,0,0,0,0,0,0,0,0,0,0,0,0],"sum_hessian":[2.735E3,1.1E1,2.724E3,5E0,6E0,5.33E2,2.191E3,1E0,5E0,5.13E2,2E1,9.7E1,2.094E3,2E0,5.11E2,1.5E1,5E0,4.2E1,5.5E1,2.44E2,1.85E3,1E0,1E0,5.2E1,4.59E2,1E1,5E0,1E0,4E0,2.8E1,1.4E1,4.3E1,1.2E1,1.32E2,1.12E2,8.6E1,1.764E3,2.4E1,2.8E1,2.8E1,4.31E2,5E0,5E0,2E0,2E0,8E0,2E1,1E1,4E0,6E0,3.7E1,2E0,1E1,4.2E1,9E1,1.05E2,7E0,4E1,4.6E1,7.4E1,1.69E3],"tree_param":{"num_deleted":"0","num_feature":"4","num_nodes":"61","size_leaf_vector":"1"}},{"base_weights":[3.336072E-2,-2.2379394E0,6.1918188E-2,1.3908477E0,-2.5082026E0,6.8004227E0,3.4370672E-2,1.0692158E0,-4.4333434E-1,-3.1623073E0,-4.8523372E-1,1.0350966E1,-1.835405E0,5.8381338E-2,-2.4308152E0,-1.0325689E0,-9.03889E-1,-1.7639656E0,1.4616933E0,-1.7040987E0,1.5742812E1,2.660173E-2,5.3241887E0,6.0715336E-1,-3.8147542E0,-7.017155E-1,5.1023984E-1,1.5708312E-1,-2.6137593E0,7.028339E0,4.1221247E0,4.215823E-2,-5.122036E0,-1.760787E0,1.1030369E1,5.371792E0,-4.278916E0,-4.5156837E-2,-4.5656633E0,-9.2922395E-1,-2.9323626E-2,3.0416899E0,-3.7894326E-1,-5.710886E-5,9.886597E-1,5.691004E-1,-1.9187268E0,-1.096372E0,7.8411436E-1,5.7835884E0,1.7281094E-1,-8.155694E-1,3.5014653E0,-1.9041373E0,-6.525248E-1,-5.9047055E-1,8.5861176E-1,-1.8788325E0,-6.893532E-1],"categories":[],"categories_nodes":[],"categories_segments":[],"categories_sizes":[],"default_left":[0,0,0,0,0,0,0,0,0,0,0,0,0,0,0,0,0,0,0,0,0,0,0,0,0,0,0,0,0,0,0,0,0,0,0,0,0,0,0,0,0,0,0,0,0,0,0,0,0,0,0,0,0,0,0,0,0,0,0],"id":10,"left_children":[1,3,5,7,9,11,13,-1,-1,15,17,19,-1,21,23,-1,25,27,-1,-1,29,31,33,35,37,-1,-1,-1,39,-1,41,43,45,47,49,51,53,55,57,-1,-1,-1,-1,-1,-1,-1,-1,-1,-1,-1,-1,-1,-1,-1,-1,-1,-1,-1,-1],"loss_changes":[1.7760258E2,3.6833267E1,5.0152167E2,2.3969244E1,4.080902E1,5.678696E2,1.5954262E2,0E0,0E0,1.2043182E1,7.025235E1,8.6736884E2,0E0,4.463356E2,1.1162956E2,0E0,1.8930864E1,1.6920334E1,0E0,0E0,5.2856116E2,2.1270738E2,6.6627246E2,2.325086E2,5.0745087E1,0E0,0E0,0E0,6.99852E0,0E0,1.424162E2,3.645554E2,8.3655045E1,7.582698E1,7.6496497E2,2.8656635E2,7.950302E0,2.799623E1,4.334027E1,0E0,0E0,0E0,0E0,0E0,0E0,0E0,0E0,0E0,0E0,0E0,0E0,0E0,0E0,0E0,0E0,0E0,0E0,0E0,0E0],"parents":[2147483647,0,0,1,1,2,2,3,3,4,4,5,5,6,6,9,9,10,10,11,11,13,13,14,14,16,16,17,17,20,20,21,21,22,22,23,23,24,24,28,28,30,30,31,31,32,32,33,33,34,34,35,35,36,36,37,37,38,38],"right_children":[2,4,6,8,10,12,14,-1,-1,16,18,20,-1,22,24,-1,26,28,-1,-1,30,32,34,36,38,-1,-1,-1,40,-1,42,44,46,48,50,52,54,56,58,-1,-1,-1,-1,-1,-1,-1,-1,-1,-1,-1,-1,-1,-1,-1,-1,-1,-1,-1,-1],"split_conditions":[7.999167E-1,8.557102E0,1.1853334E0,-4.0008333E-1,2E-1,2.784866E2,2.07E1,1.0692158E0,-4.4333434E-1,3.0992368E2,2.8953375E2,1.2287555E1,-1.835405E0,1.83E1,9.657794E1,-1.0325689E0,4.4783333E-1,7.3586075E1,1.4616933E0,-1.7040987E0,3E-1,1.71E1,2.194131E2,2.744749E1,1.781909E1,-7.017155E-1,5.1023984E-1,1.5708312E-1,2.6437543E2,7.028339E0,6.4123795E1,1.45E1,1.433234E1,3.5031162E1,2.4009163E2,2.4962307E1,2.58325E0,1.7057314E1,2.946947E1,-9.2922395E-1,-2.9323626E-2,3.0416899E0,-3.7894326E-1,-5.710886E-5,9.886597E-1,5.691004E-1,-1.9187268E0,-1.096372E0,7.8411436E-1,5.7835884E0,1.7281094E-1,-8.155694E-1,3.5014653E0,-1.9041373E0,-6.525248E-1,-5.9047055E-1,8.5861176E-1,-1.8788325E0,-6.893532E-1],"split_indices":[0,2,0,0,1,3,1,0,0,3,3,2,0,1,3,0,0,3,0,0,1,1,3,2,2,0,0,0,3,0,3,1,2,2,3,2,0,2,2,0,0,0,0,0,0,0,0,0,0,0,0,0,0,0,0,0,0,0,0],"split_type":[0,0,0,0,0,0,0,0,0,0,0,0,0,0,0,0,0,0,0,0,0,0,0,0,0,0,0,0,0,0,0,0,0,0,0,0,0,0,0,0,0,0,0,0,0,0,0,0,0,0,0,0,0,0,0,0,0,0,0],"sum_hessian":[2.735E3,3.3E1,2.702E3,2E0,3.1E1,1E1,2.692E3,1E0,1E0,2.3E1,8E0,8E0,2E0,2.667E3,2.5E1,2E1,3E0,7E0,1E0,2E0,6E0,2.652E3,1.5E1,8E0,1.7E1,2E0,1E0,2E0,5E0,3E0,3E0,2.645E3,7E0,7E0,8E0,4E0,4E0,3E0,1.4E1,4E0,1E0,1E0,2E0,2.612E3,3.3E1,1E0,6E0,5E0,2E0,4E0,4E0,2E0,2E0,1E0,3E0,2E0,1E0,7E0,7E0],"tree_param":{"num_deleted":"0","num_feature":"4","num_nodes":"59","size_leaf_vector":"1"}},{"base_weights":[2.6761223E-2,4.2659555E-2,-3.3066092E0,2.2359595E-1,-2.7802595E-1,2.723333E0,-6.383568E0,6.8338655E-2,4.2281823E0,-6.6056556E-1,1.7387784E0,-2.4846516E0,1.4400979E0,-1.0693543E-1,1.0203322E0,6.105721E0,-4.5730886E0,-4.443224E0,-4.1661504E-1,6.30102E0,6.1146903E-1,8.551918E-1,-2.0714773E-1,2.450611E-2,-3.9416347E0,3.1021183E0,-4.2335454E-1,9.013309E0,7.121569E-1,3.2972996E0,-1.943069E0,-6.858919E0,-1.9495468E0,-3.2279718E-1,-2.0786803E0,4.370549E0,5.4717193E0,-9.912668E-1,3.7654476E0,7.877383E-2,-1.8204997E-1,-1.5499551E0,8.026445E-1,1.8308636E0,-1.7230524E-1,-1.6267084E-2,-2.1598074E0,-1.8778391E0,3.0385835E0,-2.6134324E-1,4.6192317E0,2.8314195E0,-1.3476346E0,7.862349E-1,-2.3391566E0,1.3473536E0,-9.974197E-1,-1.6917385E-1,5.73789E-1,2.76529E0,2.0759599E-1,-1.5561278E0,-5.4180175E-3,4.3927474E0,1.3667062E-1],"categories":[],"categories_nodes":[],"categories_segments":[],"categories_sizes":[],"default_left":[0,0,0,0,0,0,0,0,0,0,0,0,0,0,0,0,0,0,0,0,0,0,0,0,0,0,0,0,0,0,0,0,0,0,0,0,0,0,0,0,0,0,0,0,0,0,0,0,0,0,0,0,0,0,0,0,0,0,0,0,0,0,0,0,0],"id":11,"left_children":[1,3,5,7,9,-1,11,13,15,17,19,-1,21,23,25,27,29,31,33,35,37,-1,-1,39,41,43,45,47,49,51,-1,53,55,57,-1,59,-1,61,63,-1,-1,-1,-1,-1,-1,-1,-1,-1,-1,-1,-1,-1,-1,-1,-1,-1,-1,-1,-1,-1,-1,-1,-1,-1,-1],"loss_changes":[1.4513545E2,1.5811865E2,5.533298E2,1.0827843E3,7.595404E2,0E0,1.7532153E2,2.8009982E2,1.102029E3,7.612891E2,8.0360724E2,0E0,1.0984201E1,7.1482355E2,7.85735E2,8.40423E2,2.0116072E2,2.8782642E2,4.730995E2,6.3471265E2,6.457169E2,0E0,0E0,2.0637784E2,3.947669E2,1.1839509E3,3.8730063E2,6.595818E2,4.784378E2,1.8589577E2,0E0,2.4279749E2,2.4521896E2,4.1502774E2,0E0,4.9286993E2,0E0,3.4699576E2,1.5414021E3,0E0,0E0,0E0,0E0,0E0,0E0,0E0,0E0,0E0,0E0,0E0,0E0,0E0,0E0,0E0,0E0,0E0,0E0,0E0,0E0,0E0,0E0,0E0,0E0,0E0,0E0],"parents":[2147483647,0,0,1,1,2,2,3,3,4,4,6,6,7,7,8,8,9,9,10,10,12,12,13,13,14,14,15,15,16,16,17,17,18,18,19,19,20,20,23,23,24,24,25,25,26,26,27,27,28,28,29,29,31,31,32,32,33,33,35,35,37,37,38,38],"right_children":[2,4,6,8,10,-1,12,14,16,18,20,-1,22,24,26,28,30,32,34,36,38,-1,-1,40,42,44,46,48,50,52,-1,54,56,58,-1,60,-1,62,64,-1,-1,-1,-1,-1,-1,-1,-1,-1,-1,-1,-1,-1,-1,-1,-1,-1,-1,-1,-1,-1,-1,-1,-1,-1,-1],"split_conditions":[4.6160084E1,2.3517822E2,2.3E0,2.3253413E2,3.9999998E0,2.723333E0,1.3000001E1,3.0659237E1,1.5312415E1,2.3819695E2,2.4181247E2,-2.4846516E0,9.679084E0,2.9627365E1,3.2777794E1,1.8000002E0,1.2641076E1,1.1320751E1,3.8E0,1.52E1,2.7520453E2,8.551918E-1,-2.0714773E-1,2.3110207E1,1.4554085E1,3.1999996E0,2.3019067E2,3.2270002E0,3.4283737E1,1.6970749E1,-1.943069E0,4.077E0,1.1749917E1,1.6077002E1,-2.0786803E0,5.5999994E0,5.4717193E0,5.683249E0,2.9164087E2,7.877383E-2,-1.8204997E-1,-1.5499551E0,8.026445E-1,1.8308636E0,-1.7230524E-1,-1.6267084E-2,-2.1598074E0,-1.8778391E0,3.0385835E0,-2.6134324E-1,4.6192317E0,2.8314195E0,-1.3476346E0,7.862349E-1,-2.3391566E0,1.3473536E0,-9.974197E-1,-1.6917385E-1,5.73789E-1,2.76529E0,2.0759599E-1,-1.5561278E0,-5.4180175E-3,4.3927474E0,1.3667062E-1],"split_indices":[2,3,1,3,1,0,1,2,0,3,3,0,0,2,2,1,2,0,1,1,3,0,0,2,0,1,3,0,2,0,0,0,0,0,0,1,0,0,3,0,0,0,0,0,0,0,0,0,0,0,0,0,0,0,0,0,0,0,0,0,0,0,0,0,0],"split_type":[0,0,0,0,0,0,0,0,0,0,0,0,0,0,0,0,0,0,0,0,0,0,0,0,0,0,0,0,0,0,0,0,0,0,0,0,0,0,0,0,0,0,0,0,0,0,0,0,0,0,0,0,0,0,0,0,0,0,0,0,0,0,0,0,0],"sum_hessian":[2.735E3,2.723E3,1.2E1,1.741E3,9.82E2,2E0,1E1,1.677E3,6.4E1,8.26E2,1.56E2,8E0,2E0,1.417E3,2.6E2,5.3E1,1.1E1,4.9E1,7.77E2,3E1,1.26E2,1E0,1E0,1.371E3,4.6E1,1.06E2,1.54E2,3.4E1,1.9E1,2E0,9E0,2.4E1,2.5E1,7.67E2,1E1,2.7E1,3E0,8.4E1,4.2E1,9.96E2,3.75E2,3.9E1,7E0,5.8E1,4.8E1,1.47E2,7E0,2E0,3.2E1,1.8E1,1E0,1E0,1E0,2E0,2.2E1,4E0,2.1E1,6.93E2,7.4E1,1.1E1,1.6E1,1.5E1,6.9E1,9E0,3.3E1],"tree_param":{"num_deleted":"0","num_feature":"4","num_nodes":"65","size_leaf_vector":"1"}},{"base_weights":[2.3525892E-2,9.413454E-2,-6.8521786E-1,2.7445689E-2,1.957226E0,3.269772E0,-1.183202E0,1.1926773E-1,-1.4582999E0,6.211123E0,-1.2298021E0,7.901811E0,-6.981203E-1,-2.1280298E0,2.1569203E-1,3.1918123E-2,1.863538E0,-2.4250968E0,2.3258228E0,-3.2276862E0,8.521101E0,-3.2454827E0,1.2775396E0,5.889885E-1,3.7196107E0,-2.51014E0,7.9906783E0,-2.784138E0,2.8027632E0,1.1127059E1,-1.5873742E-1,1.4911011E-1,-1.537886E0,8.829179E0,9.8259753E-1,2.439567E0,-3.2025146E0,-2.4702878E0,5.8566236E0,7.786515E-1,-5.787219E0,5.2944326E0,1.4444995E1,-8.8588536E-1,-5.5418024E0,8.290401E0,-2.3087378E0,6.2776766E0,-2.1576777E0,-1.599632E-2,-4.3787484E0,2.9760516E0,6.1975384E-1,-4.099298E0,-1.7414918E0,1.903816E-1,1.0592312E1,-1.2003554E0,6.207532E0,2.9045563E0,-9.879352E-1,-2.7286583E-1,8.2947426E-2,-1.1246942E-1,-7.735073E-1,4.367114E-1,4.788011E0,3.3539245E0,1.6146693E-1,-1.5585977E0,2.2620106E0,-1.2006774E0,1.0241588E0,-1.2790109E0,7.8899664E-1,3.2610664E0,-8.57564E-1,-5.7098967E-1,6.921204E-1,-1.4208685E-1,-2.0991638E0,5.3920317E-1,3.2257602E0,5.842666E0,6.090801E-1,-1.2048866E0,2.6180387E0,-2.1860487E0,-1.1288087E0,5.1540194E0,-1.4682825E0,-1.2286718E0,3.674068E0,2.8906431E0,5.839753E-1,-2.9275677E-1,8.614742E-1,1.3951106E-1,-1.5411454E0,1.6462788E-1,-1.4553701E0,9.13058E-1,-7.051408E-1,1.1970054E0,-8.0494297E-1,3.760969E0,7.1393424E-1,-5.480883E-1,1.9535241E0,-5.8372915E-1,7.961461E-1],"categories":[],"categories_nodes":[],"categories_segments":[],"categories_sizes":[],"default_left":[0,0,0,0,0,0,0,0,0,0,0,0,0,0,0,0,0,0,0,0,0,0,0,0,0,0,0,0,0,0,0,0,0,0,0,0,0,0,0,0,0,0,0,0,0,0,0,0,0,0,0,0,0,0,0,0,0,0,0,0,0,0,0,0,0,0,0,0,0,0,0,0,0,0,0,0,0,0,0,0,0,0,0,0,0,0,0,0,0,0,0,0,0,0,0,0,0,0,0,0,0,0,0,0,0,0,0,0,0,0,0],"id":12,"left_children":[1,3,5,7,9,11,13,15,17,19,21,23,25,27,29,31,33,35,37,39,41,43,45,47,-1,49,51,53,55,57,59,61,63,65,67,69,71,73,75,77,79,81,83,85,87,89,91,93,-1,95,97,-1,-1,99,101,103,105,-1,-1,107,109,-1,-1,-1,-1,-1,-1,-1,-1,-1,-1,-1,-1,-1,-1,-1,-1,-1,-1,-1,-1,-1,-1,-1,-1,-1,-1,-1,-1,-1,-1,-1,-1,-1,-1,-1,-1,-1,-1,-1,-1,-1,-1,-1,-1,-1,-1,-1,-1,-1,-1],"loss_changes":[1.3698337E2,3.0919812E2,4.9231036E2,3.281377E2,1.1735652E3,5.201406E2,2.9255774E2,3.4503894E2,5.178274E2,8.3423096E2,2.5684625E2,4.2020172E2,2.7196616E2,4.3484094E2,3.694646E2,3.9723325E2,6.540465E2,4.3138293E2,5.0555676E2,8.654104E1,4.9695508E2,1.4680551E2,5.975919E2,3.107412E2,0E0,6.5178024E1,1.3802216E1,1.5329694E2,3.2357184E2,5.1688354E2,2.2639622E2,2.7117285E2,1.8054181E2,6.077171E2,4.3352402E2,6.6223724E2,5.2692914E2,1.3010037E2,7.738771E2,2.0787588E1,2.8833054E1,3.8151074E2,5.8498975E2,4.8642282E2,1.6046112E1,1.0217423E3,4.662942E2,3.9415497E1,0E0,2.2203928E1,3.1777313E1,0E0,0E0,1.8090906E2,2.0238963E2,1.5264432E2,3.4034607E1,0E0,0E0,3.361789E2,2.4933612E2,0E0,0E0,0E0,0E0,0E0,0E0,0E0,0E0,0E0,0E0,0E0,0E0,0E0,0E0,0E0,0E0,0E0,0E0,0E0,0E0,0E0,0E0,0E0,0E0,0E0,0E0,0E0,0E0,0E0,0E0,0E0,0E0,0E0,0E0,0E0,0E0,0E0,0E0,0E0,0E0,0E0,0E0,0E0,0E0,0E0,0E0,0E0,0E0,0E0,0E0],"parents":[2147483647,0,0,1,1,2,2,3,3,4,4,5,5,6,6,7,7,8,8,9,9,10,10,11,11,12,12,13,13,14,14,15,15,16,16,17,17,18,18,19,19,20,20,21,21,22,22,23,23,25,25,26,26,27,27,28,28,29,29,30,30,31,31,32,32,33,33,34,34,35,35,36,36,37,37,38,38,39,39,40,40,41,41,42,42,43,43,44,44,45,45,46,46,47,47,49,49,50,50,53,53,54,54,55,55,56,56,59,59,60,60],"right_children":[2,4,6,8,10,12,14,16,18,20,22,24,26,28,30,32,34,36,38,40,42,44,46,48,-1,50,52,54,56,58,60,62,64,66,68,70,72,74,76,78,80,82,84,86,88,90,92,94,-1,96,98,-1,-1,100,102,104,106,-1,-1,108,110,-1,-1,-1,-1,-1,-1,-1,-1,-1,-1,-1,-1,-1,-1,-1,-1,-1,-1,-1,-1,-1,-1,-1,-1,-1,-1,-1,-1,-1,-1,-1,-1,-1,-1,-1,-1,-1,-1,-1,-1,-1,-1,-1,-1,-1,-1,-1,-1,-1,-1],"split_conditions":[1.6768667E1,1.6147831E1,1.127553E1,1.5376999E1,8E-1,1.7839497E1,8E-1,1.4729084E1,2.5986166E1,1.1113451E1,1.6485336E1,2E-1,1.1019764E1,2.0437416E1,8.000001E-1,1.3966584E1,1.4774917E1,7.247846E1,1.5679084E1,9.47012E0,2.4576343E2,1.8723461E1,2.8000002E0,1E-1,3.7196107E0,1.8497833E1,1.9568666E1,1.7839497E1,2.0946509E2,1.80895E1,1.884981E2,7.701721E1,2.2012257E2,2.1246222E2,9.746631E0,1.2245294E1,2.939408E2,2.3297151E2,2.2931229E2,1.6285332E1,2.5087465E1,2.0456745E1,2.6339355E2,1.7727943E1,2.2057161E1,1.665825E1,6.7E0,1.7297834E1,-2.1576777E0,6.2000003E0,6.2087173E1,2.9760516E0,6.1975384E-1,7.247846E1,1.80895E1,7.605514E1,2.0816582E1,-1.2003554E0,6.207532E0,1.4024307E2,2.8528723E1,-2.7286583E-1,8.2947426E-2,-1.1246942E-1,-7.735073E-1,4.367114E-1,4.788011E0,3.3539245E0,1.6146693E-1,-1.5585977E0,2.2620106E0,-1.2006774E0,1.0241588E0,-1.2790109E0,7.8899664E-1,3.2610664E0,-8.57564E-1,-5.7098967E-1,6.921204E-1,-1.4208685E-1,-2.0991638E0,5.3920317E-1,3.2257602E0,5.842666E0,6.090801E-1,-1.2048866E0,2.6180387E0,-2.1860487E0,-1.1288087E0,5.1540194E0,-1.4682825E0,-1.2286718E0,3.674068E0,2.8906431E0,5.839753E-1,-2.9275677E-1,8.614742E-1,1.3951106E-1,-1.5411454E0,1.6462788E-1,-1.4553701E0,9.13058E-1,-7.051408E-1,1.1970054E0,-8.0494297E-1,3.760969E0,7.1393424E-1,-5.480883E-1,1.9535241E0,-5.8372915E-1,7.961461E-1],"split_indices":[0,0,2,0,1,0,1,0,2,2,0,1,2,0,1,0,0,3,0,2,3,2,1,1,0,0,0,0,3,0,3,3,3,3,2,2,3,3,3,0,3,2,3,2,2,0,1,0,0,1,3,0,0,3,0,3,0,0,0,3,2,0,0,0,0,0,0,0,0,0,0,0,0,0,0,0,0,0,0,0,0,0,0,0,0,0,0,0,0,0,0,0,0,0,0,0,0,0,0,0,0,0,0,0,0,0,0,0,0,0,0],"split_type":[0,0,0,0,0,0,0,0,0,0,0,0,0,0,0,0,0,0,0,0,0,0,0,0,0,0,0,0,0,0,0,0,0,0,0,0,0,0,0,0,0,0,0,0,0,0,0,0,0,0,0,0,0,0,0,0,0,0,0,0,0,0,0,0,0,0,0,0,0,0,0,0,0,0,0,0,0,0,0,0,0,0,0,0,0,0,0,0,0,0,0,0,0,0,0,0,0,0,0,0,0,0,0,0,0,0,0,0,0,0,0],"sum_hessian":[2.735E3,2.488E3,2.47E2,2.403E3,8.5E1,2.7E1,2.2E2,2.264E3,1.39E2,3.6E1,4.9E1,1.2E1,1.5E1,1.31E2,8.9E1,2.157E3,1.07E2,1.11E2,2.8E1,7E0,2.9E1,2.7E1,2.2E1,5E0,7E0,1.3E1,2E0,1.16E2,1.5E1,2E0,8.7E1,2.008E3,1.49E2,1.1E1,9.6E1,1.5E1,9.6E1,1.2E1,1.6E1,3E0,4E0,2E1,9E0,1.4E1,1.3E1,7E0,1.5E1,3E0,2E0,6E0,7E0,1E0,1E0,5E1,6.6E1,1.2E1,3E0,1E0,1E0,1.8E1,6.9E1,2.15E2,1.793E3,7.1E1,7.8E1,6E0,5E0,3E0,9.3E1,6E0,9E0,8.6E1,1E1,9E0,3E0,1E1,6E0,1E0,2E0,1E0,3E0,1.3E1,7E0,6E0,3E0,1.1E1,3E0,5E0,8E0,4E0,3E0,1.4E1,1E0,1E0,2E0,5E0,1E0,1E0,6E0,7E0,4.3E1,7E0,5.9E1,5E0,7E0,2E0,1E0,8E0,1E1,5.5E1,1.4E1],"tree_param":{"num_deleted":"0","num_feature":"4","num_nodes":"111","size_leaf_vector":"1"}},{"base_weights":[3.1321626E-2,1.2548244E-1,-5.600215E-1,7.921434E-2,9.175862E0,-3.3991377E0,-2.8603646E-1,3.690496E-1,-3.1107205E-1,8.699102E0,-6.5307605E-1,-2.0141191E0,-6.383269E0,-7.0426303E-1,2.6579275E0,-1.11159615E-1,9.869987E-1,-3.29579E0,-4.146047E-2,7.03456E0,-1.7007964E0,7.5831264E-1,-1.3255064E0,-2.7402003E0,-2.5065844E0,6.2226826E-1,-1.7948083E0,5.1202106E0,1.1505353E0,3.0890658E-1,-1.8949502E0,3.403253E0,4.3237296E-1,-6.2476654E0,-1.6794232E0,7.920233E0,-1.1998434E-1,3.468281E0,-9.816851E-1,-1.6872457E0,4.148918E0,2.0061937E-1,-1.1278849E0,3.7191257E-1,1.1680851E1,-1.0893923E0,-3.7872915E0,-2.4724813E0,6.73959E0,4.25189E-2,1.3839006E0,-7.3308736E-1,9.069406E-1,1.5053996E-1,1.6212696E0,7.749513E-2,3.207341E0,-3.5724467E-1,-2.539112E0,-7.8179586E-1,3.2357256E0,6.694196E0,-8.986924E-1,1.9858615E-1,-1.8724605E-1,-2.0703416E0,3.3918187E-1,-3.1598347E-1,5.7688135E-1,4.708956E0,5.474276E-1,-5.278861E-1,1.063387E0,-1.4380097E0,9.647178E-1,-3.1827466E0,-3.9110306E-1,3.7491298E0,-1.7401697E-1],"categories":[],"categories_nodes":[],"categories_segments":[],"categories_sizes":[],"default_left":[0,0,0,0,0,0,0,0,0,0,0,0,0,0,0,0,0,0,0,0,0,0,0,0,0,0,0,0,0,0,0,0,0,0,0,0,0,0,0,0,0,0,0,0,0,0,0,0,0,0,0,0,0,0,0,0,0,0,0,0,0,0,0,0,0,0,0,0,0,0,0,0,0,0,0,0,0,0,0],"id":13,"left_children":[1,3,5,7,9,11,13,15,17,-1,19,21,23,25,27,29,31,33,35,37,-1,39,-1,41,-1,43,45,-1,47,49,51,53,55,57,59,61,63,-1,-1,65,-1,-1,-1,67,69,71,73,75,77,-1,-1,-1,-1,-1,-1,-1,-1,-1,-1,-1,-1,-1,-1,-1,-1,-1,-1,-1,-1,-1,-1,-1,-1,-1,-1,-1,-1,-1,-1],"loss_changes":[1.5241446E2,9.879274E2,2.9150885E2,2.659439E2,2.3567869E3,1.2353488E2,4.2541977E2,4.0041852E2,8.061874E2,0E0,3.869488E2,1.6332437E2,4.8946594E1,4.380028E2,9.143524E2,5.7006104E2,7.891975E2,3.8552655E2,5.7611865E2,2.2444125E2,0E0,4.0693704E2,0E0,1.9889763E1,0E0,3.7495105E2,2.2919208E2,0E0,8.26633E2,4.4258624E2,3.9865936E2,6.359199E2,8.56111E2,3.1490088E2,6.633449E2,1.4809282E3,3.5995007E2,0E0,0E0,1.6941422E2,0E0,0E0,0E0,3.004438E2,9.0094025E1,3.9136224E2,3.1837292E2,2.2392357E2,6.81536E2,0E0,0E0,0E0,0E0,0E0,0E0,0E0,0E0,0E0,0E0,0E0,0E0,0E0,0E0,0E0,0E0,0E0,0E0,0E0,0E0,0E0,0E0,0E0,0E0,0E0,0E0,0E0,0E0,0E0,0E0],"parents":[2147483647,0,0,1,1,2,2,3,3,4,4,5,5,6,6,7,7,8,8,10,10,11,11,12,12,13,13,14,14,15,15,16,16,17,17,18,18,19,19,21,21,23,23,25,25,26,26,28,28,29,29,30,30,31,31,32,32,33,33,34,34,35,35,36,36,39,39,43,43,44,44,45,45,46,46,47,47,48,48],"right_children":[2,4,6,8,10,12,14,16,18,-1,20,22,24,26,28,30,32,34,36,38,-1,40,-1,42,-1,44,46,-1,48,50,52,54,56,58,60,62,64,-1,-1,66,-1,-1,-1,68,70,72,74,76,78,-1,-1,-1,-1,-1,-1,-1,-1,-1,-1,-1,-1,-1,-1,-1,-1,-1,-1,-1,-1,-1,-1,-1,-1,-1,-1,-1,-1,-1,-1],"split_conditions":[2.7157648E2,2.7052826E2,2.7520453E2,2.3177402E1,1.8844202E1,1.6E0,4.399999E0,2.1164244E2,2.3906818E1,8.699102E0,2.1E0,9.166584E0,2.7287094E2,1.5807239E1,2.819763E2,1.884981E2,2.2012257E2,9.316584E0,2.4033876E1,1.4960334E1,-1.7007964E0,7.8540835E0,-1.3255064E0,2.0000002E0,-2.5065844E0,1.5629971E1,3.2463742E2,5.1202106E0,2.2511517E1,1.8085612E2,2.2406927E1,9.008251E0,1.3000001E1,1.5230612E2,2.5720718E2,9.266585E0,2.1164244E2,3.468281E0,-9.816851E-1,4.7603326E0,4.148918E0,2.0061937E-1,-1.1278849E0,2E-1,5.683249E0,2.7722336E1,3.5356845E2,2.8365042E2,1.07E1,4.25189E-2,1.3839006E0,-7.3308736E-1,9.069406E-1,1.5053996E-1,1.6212696E0,7.749513E-2,3.207341E0,-3.5724467E-1,-2.539112E0,-7.8179586E-1,3.2357256E0,6.694196E0,-8.986924E-1,1.9858615E-1,-1.8724605E-1,-2.0703416E0,3.3918187E-1,-3.1598347E-1,5.7688135E-1,4.708956E0,5.474276E-1,-5.278861E-1,1.063387E0,-1.4380097E0,9.647178E-1,-3.1827466E0,-3.9110306E-1,3.7491298E0,-1.7401697E-1],"split_indices":[3,3,3,2,2,1,1,3,2,0,1,0,3,2,3,3,3,0,2,0,0,0,0,1,0,2,3,0,2,3,2,0,1,3,3,0,3,0,0,0,0,0,0,1,0,2,3,3,1,0,0,0,0,0,0,0,0,0,0,0,0,0,0,0,0,0,0,0,0,0,0,0,0,0,0,0,0,0,0],"split_type":[0,0,0,0,0,0,0,0,0,0,0,0,0,0,0,0,0,0,0,0,0,0,0,0,0,0,0,0,0,0,0,0,0,0,0,0,0,0,0,0,0,0,0,0,0,0,0,0,0,0,0,0,0,0,0,0,0,0,0,0,0,0,0,0,0,0,0,0,0,0,0,0,0,0,0,0,0,0,0],"sum_hessian":[2.735E3,2.36E3,3.75E2,2.349E3,1.1E1,3.2E1,3.43E2,1.348E3,1.001E3,3E0,8E0,2.3E1,9E0,3.01E2,4.2E1,7.59E2,5.89E2,8.2E1,9.19E2,3E0,5E0,1.1E1,1.2E1,4E0,5E0,1.36E2,1.65E2,3E0,3.9E1,6.15E2,1.44E2,1.09E2,4.8E2,2.8E1,5.4E1,8E0,9.11E2,2E0,1E0,1E1,1E0,1E0,3E0,1.34E2,2E0,1.23E2,4.2E1,2.4E1,1.5E1,5.93E2,2.2E1,1.3E2,1.4E1,4.5E1,6.4E1,4.73E2,7E0,9E0,1.9E1,5.1E1,3E0,3E0,5E0,3.57E2,5.54E2,3E0,7E0,7E1,6.4E1,1E0,1E0,1.08E2,1.5E1,3.7E1,5E0,2E0,2.2E1,8E0,7E0],"tree_param":{"num_deleted":"0","num_feature":"4","num_nodes":"79","size_leaf_vector":"1"}},{"base_weights":[3.284095E-2,6.596557E-1,-5.370181E-2,2.8440103E-1,3.1751025E0,-3.806129E0,-1.7461978E-2,5.5341786E-1,-5.9939404E0,5.8437753E0,-1.6935194E0,-1.4329797E0,-5.862101E0,-1.9638648E0,3.6239423E-2,2.4530546E-1,4.1415806E0,-2.380478E0,-1.2823749E-1,1.4940159E1,3.2167284E0,-6.3122683E0,5.1466246E0,1.0791209E0,-4.1249337E0,2.247572E-1,-7.2592783E0,-1.1143471E0,-4.664666E0,8.528116E0,1.0535284E-2,-1.1942927E0,1.289778E0,5.8828754E0,-2.9553978E0,-6.825231E-1,1.3457346E0,-3.1527296E-1,6.7940087E0,6.712362E0,-2.9667416E0,-1.0610247E0,-2.2477353E0,4.3917255E0,-1.5781767E0,-2.892228E-1,1.3933774E0,-2.7134648E-1,-1.6527103E0,-2.4266968E0,-2.6269572E0,-9.299684E-2,-2.9249146E0,9.5661765E-1,-5.603065E0,1.6202085E1,-1.2778819E0,9.752374E-2,-8.7069166E-1,-3.0947879E-2,-1.3512851E0,3.3217056E0,2.837773E-1,1.0219227E-1,3.08478E0,7.4504995E-1,-2.222749E0,1.1518551E-1,4.903951E-1,1.1102982E0,-1.2521709E0,2.6481814E0,-1.4069107E0,1.8848171E0,-1.9520934E0,-7.23214E-1,2.4575287E-1,3.857099E-1,-1.9550524E0,-8.4202397E-1,9.491649E-1,-5.7852603E-2,-1.1242782E0,-2.9805824E-1,1.0181292E0,-1.72971E0,-5.9171325E-1,9.628095E-1,-5.323315E-1,-1.9697074E0,-6.1724477E-2,5.602583E0,1.3173765E0,-1.8922093E0,7.5032014E-1,1.6374437E-2,1.7118397E0,3.9219084E-1,-5.164695E-1],"categories":[],"categories_nodes":[],"categories_segments":[],"categories_sizes":[],"default_left":[0,0,0,0,0,0,0,0,0,0,0,0,0,0,0,0,0,0,0,0,0,0,0,0,0,0,0,0,0,0,0,0,0,0,0,0,0,0,0,0,0,0,0,0,0,0,0,0,0,0,0,0,0,0,0,0,0,0,0,0,0,0,0,0,0,0,0,0,0,0,0,0,0,0,0,0,0,0,0,0,0,0,0,0,0,0,0,0,0,0,0,0,0,0,0,0,0,0,0],"id":14,"left_children":[1,3,5,7,9,11,13,15,17,19,21,23,25,27,29,31,33,-1,35,37,39,41,43,45,47,-1,49,51,53,55,57,59,61,63,65,-1,67,69,-1,71,73,75,-1,-1,77,79,-1,-1,-1,-1,81,83,85,87,89,91,93,95,97,-1,-1,-1,-1,-1,-1,-1,-1,-1,-1,-1,-1,-1,-1,-1,-1,-1,-1,-1,-1,-1,-1,-1,-1,-1,-1,-1,-1,-1,-1,-1,-1,-1,-1,-1,-1,-1,-1,-1,-1],"loss_changes":[1.4845326E2,3.124828E2,3.269831E2,4.931212E2,5.685852E2,1.038197E2,2.4915318E2,3.0743457E2,1.3560544E2,6.210471E2,5.379734E2,8.560081E1,1.162843E2,1.4164217E2,5.063113E2,3.8947455E2,2.8926077E2,0E0,1.5719174E1,7.1253894E2,5.1706213E2,5.4024597E1,4.6994742E2,3.5494846E1,2.176168E1,0E0,1.7185425E1,9.218917E1,8.448511E1,5.474608E2,1.7746822E2,3.932041E2,4.940926E2,4.3541473E2,1.3951852E2,0E0,2.0599604E-1,6.193945E1,0E0,4.031123E2,3.3558914E2,9.587855E0,0E0,0E0,7.909731E1,6.1039864E1,0E0,0E0,0E0,0E0,7.4605827E0,1.0698964E2,3.7335037E1,2.4151957E1,6.6191864E1,3.4833984E1,9.179976E1,5.0715198E2,3.8771558E2,0E0,0E0,0E0,0E0,0E0,0E0,0E0,0E0,0E0,0E0,0E0,0E0,0E0,0E0,0E0,0E0,0E0,0E0,0E0,0E0,0E0,0E0,0E0,0E0,0E0,0E0,0E0,0E0,0E0,0E0,0E0,0E0,0E0,0E0,0E0,0E0,0E0,0E0,0E0,0E0],"parents":[2147483647,0,0,1,1,2,2,3,3,4,4,5,5,6,6,7,7,8,8,9,9,10,10,11,11,12,12,13,13,14,14,15,15,16,16,18,18,19,19,20,20,21,21,22,22,23,23,24,24,26,26,27,27,28,28,29,29,30,30,31,31,32,32,33,33,34,34,36,36,37,37,39,39,40,40,41,41,44,44,45,45,50,50,51,51,52,52,53,53,54,54,55,55,56,56,57,57,58,58],"right_children":[2,4,6,8,10,12,14,16,18,20,22,24,26,28,30,32,34,-1,36,38,40,42,44,46,48,-1,50,52,54,56,58,60,62,64,66,-1,68,70,-1,72,74,76,-1,-1,78,80,-1,-1,-1,-1,82,84,86,88,90,92,94,96,98,-1,-1,-1,-1,-1,-1,-1,-1,-1,-1,-1,-1,-1,-1,-1,-1,-1,-1,-1,-1,-1,-1,-1,-1,-1,-1,-1,-1,-1,-1,-1,-1,-1,-1,-1,-1,-1,-1,-1,-1],"split_conditions":[5.1040835E0,4.7603326E0,5.29575E0,4.672833E0,2.3297151E2,5.1895003E0,9.47012E0,4.493667E0,2.8365042E2,4.8374166E0,2.3469128E1,2.4137433E2,1.5124284E1,9.028754E0,9.746631E0,1E-1,2.9301876E1,-2.380478E0,1E-1,6.2087173E1,2.0864056E2,4.8374166E0,2.5986166E1,2.6427528E1,1.8448023E1,2.247572E-1,3.1435646E1,2.3424164E2,4.370208E1,1.4988635E2,8.8E0,1.970815E1,8.557102E0,1.5683774E1,2.4874672E2,-6.825231E-1,4E-1,1.6418526E1,6.7940087E0,3.2491867E1,1.5379206E1,3E-1,-2.2477353E0,4.3917255E0,2.4361403E2,8.6441696E1,1.3933774E0,-2.7134648E-1,-1.6527103E0,-2.4266968E0,7.7999988E0,2.2258165E2,2.4262952E2,7.0978336E0,1.4904083E1,2E-1,1.6156532E2,8.5E0,1.6803381E2,-3.0947879E-2,-1.3512851E0,3.3217056E0,2.837773E-1,1.0219227E-1,3.08478E0,7.4504995E-1,-2.222749E0,1.1518551E-1,4.903951E-1,1.1102982E0,-1.2521709E0,2.6481814E0,-1.4069107E0,1.8848171E0,-1.9520934E0,-7.23214E-1,2.4575287E-1,3.857099E-1,-1.9550524E0,-8.4202397E-1,9.491649E-1,-5.7852603E-2,-1.1242782E0,-2.9805824E-1,1.0181292E0,-1.72971E0,-5.9171325E-1,9.628095E-1,-5.323315E-1,-1.9697074E0,-6.1724477E-2,5.602583E0,1.3173765E0,-1.8922093E0,7.5032014E-1,1.6374437E-2,1.7118397E0,3.9219084E-1,-5.164695E-1],"split_indices":[0,0,0,0,3,0,2,0,3,0,2,3,2,2,2,1,2,0,1,3,3,0,2,2,2,0,2,3,3,3,1,2,2,2,3,0,1,2,0,2,2,1,0,0,3,3,0,0,0,0,1,3,3,0,0,1,3,1,3,0,0,0,0,0,0,0,0,0,0,0,0,0,0,0,0,0,0,0,0,0,0,0,0,0,0,0,0,0,0,0,0,0,0,0,0,0,0,0,0],"split_type":[0,0,0,0,0,0,0,0,0,0,0,0,0,0,0,0,0,0,0,0,0,0,0,0,0,0,0,0,0,0,0,0,0,0,0,0,0,0,0,0,0,0,0,0,0,0,0,0,0,0,0,0,0,0,0,0,0,0,0,0,0,0,0,0,0,0,0,0,0,0,0,0,0,0,0,0,0,0,0,0,0,0,0,0,0,0,0,0,0,0,0,0,0,0,0,0,0,0,0],"sum_hessian":[2.735E3,3.31E2,2.404E3,2.89E2,4.2E1,2.2E1,2.382E3,2.78E2,1.1E1,2.7E1,1.5E1,1.1E1,1.1E1,6.3E1,2.319E3,2.57E2,2.1E1,8E0,3E0,5E0,2.2E1,9E0,6E0,6E0,5E0,2E0,9E0,4.9E1,1.4E1,6E0,2.313E3,1.08E2,1.49E2,1.7E1,4E0,1E0,2E0,2E0,3E0,1.4E1,8E0,2E0,7E0,2E0,4E0,5E0,1E0,2E0,3E0,7E0,2E0,3.2E1,1.7E1,2E0,1.2E1,3E0,3E0,2.106E3,2.07E2,8.2E1,2.6E1,4E0,1.45E2,8E0,9E0,2E0,2E0,1E0,1E0,1E0,1E0,1.2E1,2E0,2E0,6E0,1E0,1E0,3E0,1E0,3E0,2E0,1E0,1E0,2.6E1,6E0,3E0,1.4E1,1E0,1E0,1E1,2E0,2E0,1E0,1E0,2E0,2.091E3,1.5E1,5.8E1,1.49E2],"tree_param":{"num_deleted":"0","num_feature":"4","num_nodes":"99","size_leaf_vector":"1"}},{"base_weights":[2.6559649E-2,-2.2997662E-2,8.6918527E-1,3.7443507E-2,-2.0188444E0,2.3595235E0,-1.1618756E0,4.898749E-3,2.4801245E0,2.1147118E0,-3.9673069E0,2.8552768E-1,5.347364E0,3.4718637E0,-2.6214347E0,2.2489745E-2,-3.9423268E0,-2.2128773E0,6.054593E0,-5.6124873E0,6.8120418E0,-4.9571714E0,4.4478498E0,1.9299906E0,-5.4938865E0,1.4037747E1,2.7656252E0,-4.299385E0,7.395103E0,-6.1312675E0,-7.717072E-2,-9.112378E-3,1.4091268E0,-2.3183925E0,-1.5567119E0,8.037626E0,-8.1418915E0,-1.2917436E0,8.266282E0,-7.3251586E0,-1.2121905E0,2.1972233E1,1.6233641E0,-2.1809423E0,-6.1903744E0,4.7395563E0,-9.819887E-1,4.893935E0,-5.887699E0,-7.3600583E0,2.2551007E0,6.312072E-1,1.544199E1,-2.8169544E0,5.026463E0,-1.4914446E0,-1.4083515E-1,-9.548168E-1,1.0645675E1,-1.0150924E0,-2.1014225E0,4.624636E0,-1.7092266E0,6.1301548E-2,-7.155277E-2,1.4689279E0,-1.2133162E0,3.6562607E0,-1.5783758E0,3.7328935E0,-2.09837E0,-2.7597818E0,-7.824738E-1,4.1915913E0,1.0337018E0,-6.0280895E-1,-2.3628693E0,-1.5076499E0,1.5341604E0,1.6585102E0,7.6832204E0,1.4184928E0,-1.2870631E0,-1.3960559E0,1.2568293E0,-2.5495396E0,-1.005339E0,9.29955E-1,-1.4209495E0,1.7924805E0,-2.1561103E0,5.3631765E-1,-2.0243957E0,-1.7587624E-1,-2.6400628E0,5.540373E0,1.5754385E0,5.0248474E-1,-2.6551714E0,2.8272393E0,6.463431E-1,-1.0553731E0,1.0101695E0,4.509307E0,-5.020741E-1,2.7580996E0,1.3345857E-2,8.227634E-1,-1.0325298E0],"categories":[],"categories_nodes":[],"categories_segments":[],"categories_sizes":[],"default_left":[0,0,0,0,0,0,0,0,0,0,0,0,0,0,0,0,0,0,0,0,0,0,0,0,0,0,0,0,0,0,0,0,0,0,0,0,0,0,0,0,0,0,0,0,0,0,0,0,0,0,0,0,0,0,0,0,0,0,0,0,0,0,0,0,0,0,0,0,0,0,0,0,0,0,0,0,0,0,0,0,0,0,0,0,0,0,0,0,0,0,0,0,0,0,0,0,0,0,0,0,0,0,0,0,0,0,0,0,0],"id":15,"left_children":[1,3,5,7,9,11,13,15,17,19,21,23,25,27,29,31,33,35,37,39,41,43,45,47,49,51,53,55,57,59,61,63,65,-1,67,69,71,-1,73,75,77,79,81,83,85,-1,87,89,91,93,-1,-1,95,97,99,-1,-1,101,103,-1,-1,105,107,-1,-1,-1,-1,-1,-1,-1,-1,-1,-1,-1,-1,-1,-1,-1,-1,-1,-1,-1,-1,-1,-1,-1,-1,-1,-1,-1,-1,-1,-1,-1,-1,-1,-1,-1,-1,-1,-1,-1,-1,-1,-1,-1,-1,-1,-1],"loss_changes":[1.1427059E2,3.1190753E2,4.6284058E2,1.9952399E2,6.204999E2,5.43789E2,4.4871033E2,1.7215016E2,5.669726E2,9.456625E2,4.5520166E2,5.143169E2,7.6888354E2,5.1960986E2,4.4602386E2,1.0816227E2,8.731186E1,9.7707227E2,4.7095898E2,6.648312E1,1.2229126E3,1.4741089E2,3.8530783E2,1.00200446E3,3.466922E2,1.0157251E2,3.801772E2,1.3110649E1,3.0872687E2,2.669812E1,2.3811287E2,1.1825014E2,1.065795E3,0E0,4.7145062E2,4.8436584E2,3.45177E1,0E0,3.9193555E2,4.6795044E0,1.221926E2,9.773865E1,2.5898267E2,2.715154E2,1.81224E2,0E0,9.130894E1,4.4778717E2,9.130029E1,1.0214911E2,0E0,0E0,1.18866455E2,2.5874606E2,2.4492682E2,0E0,0E0,5.6156864E1,4.5734943E2,0E0,0E0,1.6700569E2,1.8683517E2,0E0,0E0,0E0,0E0,0E0,0E0,0E0,0E0,0E0,0E0,0E0,0E0,0E0,0E0,0E0,0E0,0E0,0E0,0E0,0E0,0E0,0E0,0E0,0E0,0E0,0E0,0E0,0E0,0E0,0E0,0E0,0E0,0E0,0E0,0E0,0E0,0E0,0E0,0E0,0E0,0E0,0E0,0E0,0E0,0E0,0E0],"parents":[2147483647,0,0,1,1,2,2,3,3,4,4,5,5,6,6,7,7,8,8,9,9,10,10,11,11,12,12,13,13,14,14,15,15,16,16,17,17,18,18,19,19,20,20,21,21,22,22,23,23,24,24,25,25,26,26,27,27,28,28,29,29,30,30,31,31,32,32,34,34,35,35,36,36,38,38,39,39,40,40,41,41,42,42,43,43,44,44,46,46,47,47,48,48,49,49,52,52,53,53,54,54,57,57,58,58,61,61,62,62],"right_children":[2,4,6,8,10,12,14,16,18,20,22,24,26,28,30,32,34,36,38,40,42,44,46,48,50,52,54,56,58,60,62,64,66,-1,68,70,72,-1,74,76,78,80,82,84,86,-1,88,90,92,94,-1,-1,96,98,100,-1,-1,102,104,-1,-1,106,108,-1,-1,-1,-1,-1,-1,-1,-1,-1,-1,-1,-1,-1,-1,-1,-1,-1,-1,-1,-1,-1,-1,-1,-1,-1,-1,-1,-1,-1,-1,-1,-1,-1,-1,-1,-1,-1,-1,-1,-1,-1,-1,-1,-1,-1,-1],"split_conditions":[3.5632725E1,3.3425762E1,9.874918E0,3.259939E1,1.6E0,8.108251E0,1.9853099E2,3.2491867E1,9.008251E0,2.0573012E2,1.3581166E1,7.5957513E0,8.481167E0,1.1749917E1,2.159422E2,3.1700449E1,9.779084E0,5.493667E0,1.9512405E2,3.5346058E1,6.829083E0,2.0380995E2,1.3685333E1,9.199999E0,9.199999E0,3.612398E1,8.797833E0,1.1635334E1,3.1999996E0,2.0435051E2,7.0000005E-1,1.9586119E1,2.8E0,-2.3183925E0,1.0168668E1,2.3517822E2,2.3727861E2,-1.2917436E0,1.6000001E0,3.3857227E1,1.8963422E2,1E-1,2.3353346E2,1.943277E2,3.9999998E0,4.7395563E0,1.4774917E1,2.738809E2,3.612398E1,3E-1,2.2551007E0,6.312072E-1,3.918712E1,6.0999994E0,3.793006E1,-1.4914446E0,-1.4083515E-1,1.3168668E1,1.3824916E1,-1.0150924E0,-2.1014225E0,1.1749917E1,2.1860301E2,6.1301548E-2,-7.155277E-2,1.4689279E0,-1.2133162E0,3.6562607E0,-1.5783758E0,3.7328935E0,-2.09837E0,-2.7597818E0,-7.824738E-1,4.1915913E0,1.0337018E0,-6.0280895E-1,-2.3628693E0,-1.5076499E0,1.5341604E0,1.6585102E0,7.6832204E0,1.4184928E0,-1.2870631E0,-1.3960559E0,1.2568293E0,-2.5495396E0,-1.005339E0,9.29955E-1,-1.4209495E0,1.7924805E0,-2.1561103E0,5.3631765E-1,-2.0243957E0,-1.7587624E-1,-2.6400628E0,5.540373E0,1.5754385E0,5.0248474E-1,-2.6551714E0,2.8272393E0,6.463431E-1,-1.0553731E0,1.0101695E0,4.509307E0,-5.020741E-1,2.7580996E0,1.3345857E-2,8.227634E-1,-1.0325298E0],"split_indices":[2,2,0,2,1,0,3,2,0,3,0,0,0,0,3,2,0,0,3,2,0,3,0,1,1,2,0,0,1,3,1,2,1,0,0,3,3,0,1,2,3,1,3,3,1,0,0,3,2,1,0,0,2,1,2,0,0,0,0,0,0,0,3,0,0,0,0,0,0,0,0,0,0,0,0,0,0,0,0,0,0,0,0,0,0,0,0,0,0,0,0,0,0,0,0,0,0,0,0,0,0,0,0,0,0,0,0,0,0],"split_type":[0,0,0,0,0,0,0,0,0,0,0,0,0,0,0,0,0,0,0,0,0,0,0,0,0,0,0,0,0,0,0,0,0,0,0,0,0,0,0,0,0,0,0,0,0,0,0,0,0,0,0,0,0,0,0,0,0,0,0,0,0,0,0,0,0,0,0,0,0,0,0,0,0,0,0,0,0,0,0,0,0,0,0,0,0,0,0,0,0,0,0,0,0,0,0,0,0,0,0,0,0,0,0,0,0,0,0,0,0],"sum_hessian":[2.735E3,2.584E3,1.51E2,2.509E3,7.5E1,8.7E1,6.4E1,2.477E3,3.2E1,2.4E1,5.1E1,5.2E1,3.5E1,1.5E1,4.9E1,2.467E3,1E1,1.4E1,1.8E1,9E0,1.5E1,4.6E1,5E0,4.1E1,1.1E1,7E0,2.8E1,5E0,1E1,2E1,2.9E1,2.413E3,5.4E1,3E0,7E0,5E0,9E0,3E0,1.5E1,6E0,3E0,3E0,1.2E1,1.5E1,3.1E1,1E0,4E0,3E1,1.1E1,1E1,1E0,1E0,6E0,8E0,2E1,4E0,1E0,3E0,7E0,6E0,1.4E1,7E0,2.2E1,1.25E3,1.163E3,3.3E1,2.1E1,1E0,6E0,4E0,1E0,7E0,2E0,6E0,9E0,1E0,5E0,2E0,1E0,1E0,2E0,8E0,4E0,1.1E1,4E0,1.6E1,1.5E1,2E0,2E0,2.8E1,2E0,1E0,1E1,2E0,8E0,4E0,2E0,5E0,3E0,7E0,1.3E1,2E0,1E0,5E0,2E0,3E0,4E0,6E0,1.6E1],"tree_param":{"num_deleted":"0","num_feature":"4","num_nodes":"109","size_leaf_vector":"1"}},{"base_weights":[2.5006099E-2,-1.0743407E0,6.1088424E-2,2.0350573E0,-1.8037128E0,3.740676E0,4.853075E-2,-1.9366022E0,1.5427101E1,-4.002203E0,-1.1433635E0,1.3025473E1,-3.0726347E0,-8.578561E-1,9.539973E-2,6.7243713E-1,-2.430411E0,4.980183E-1,5.8388286E0,-1.9233441E0,-5.405389E0,-4.527249E-1,-3.637978E0,4.469806E0,1.1105747E0,-5.168909E0,1.1113105E0,2.4360426E-1,-1.7765851E0,2.2679906E0,5.844819E-2,-2.9061842E0,4.918299E-1,-2.7883995E0,6.1980647E-1,-2.33555E0,-8.7539166E-1,3.5539303E0,-9.302993E-1,8.091929E-1,-4.459123E0,-1.8236824E0,-2.2931686E-1,1.7062839E0,-3.2641087E0,-2.8493989E0,1.7987882E0,-3.1936324E0,4.0745487E0,-2.9604897E0,8.427986E-2,-9.944517E-1,2.3835255E-1,-2.4354687E-1,-8.9475757E-1,2.300414E0,-5.2344877E-1,-4.557862E-1,6.4426196E-1,-1.6144654E0,-6.1639976E-2,1.6111784E-2,5.341648E0,-1.3100748E0,5.0623363E-1,-1.4628729E0,-1.7006567E-1,7.710108E-1,-7.9711413E-1,-1.6305012E0,-3.4092587E-1,2.4877787E0,9.9943876E-2,2.287579E0,-1.1613122E0,6.59736E-2,-8.8095814E-2],"categories":[],"categories_nodes":[],"categories_segments":[],"categories_sizes":[],"default_left":[0,0,0,0,0,0,0,0,0,0,0,0,0,0,0,0,0,0,0,0,0,0,0,0,0,0,0,0,0,0,0,0,0,0,0,0,0,0,0,0,0,0,0,0,0,0,0,0,0,0,0,0,0,0,0,0,0,0,0,0,0,0,0,0,0,0,0,0,0,0,0,0,0,0,0,0,0],"id":16,"left_children":[1,3,5,7,9,11,13,15,17,19,21,23,25,27,29,-1,31,-1,-1,33,35,37,39,-1,-1,41,-1,43,45,47,49,51,-1,53,-1,-1,-1,55,57,-1,59,-1,-1,61,63,65,67,69,71,73,75,-1,-1,-1,-1,-1,-1,-1,-1,-1,-1,-1,-1,-1,-1,-1,-1,-1,-1,-1,-1,-1,-1,-1,-1,-1,-1],"loss_changes":[1.0859451E2,2.0097867E2,1.2226717E2,9.34083E2,9.849985E1,6.093643E2,1.1231777E2,3.4331944E1,1.89927E2,3.627594E1,9.483412E1,1.4728821E1,1.0438629E2,1.3198544E2,2.0161253E2,0E0,2.9936684E1,0E0,0E0,3.3369072E1,3.0558624E1,8.941264E1,7.445393E1,0E0,0E0,1.5394592E1,0E0,3.1340912E2,2.7746088E2,4.2741565E2,1.9302643E2,2.0781334E1,0E0,2.6464462E-1,0E0,0E0,0E0,1.2237799E2,7.758794E1,0E0,4.205484E1,0E0,0E0,1.1430673E3,1.056599E2,2.516821E2,6.525011E1,4.454432E1,5.0224255E2,2.319339E2,1.25753624E2,0E0,0E0,0E0,0E0,0E0,0E0,0E0,0E0,0E0,0E0,0E0,0E0,0E0,0E0,0E0,0E0,0E0,0E0,0E0,0E0,0E0,0E0,0E0,0E0,0E0,0E0],"parents":[2147483647,0,0,1,1,2,2,3,3,4,4,5,5,6,6,7,7,8,8,9,9,10,10,11,11,12,12,13,13,14,14,16,16,19,19,20,20,21,21,22,22,25,25,27,27,28,28,29,29,30,30,31,31,33,33,37,37,38,38,40,40,43,43,44,44,45,45,46,46,47,47,48,48,49,49,50,50],"right_children":[2,4,6,8,10,12,14,16,18,20,22,24,26,28,30,-1,32,-1,-1,34,36,38,40,-1,-1,42,-1,44,46,48,50,52,-1,54,-1,-1,-1,56,58,-1,60,-1,-1,62,64,66,68,70,72,74,76,-1,-1,-1,-1,-1,-1,-1,-1,-1,-1,-1,-1,-1,-1,-1,-1,-1,-1,-1,-1,-1,-1,-1,-1,-1,-1],"split_conditions":[9.47012E0,3.8207505E0,9.746631E0,3.343667E0,6.7103343E0,1.4988635E2,5.3972538E1,-4.0008333E-1,1E-1,1.5230612E2,9.028754E0,2E-1,1E-1,3.160744E1,6.2087173E1,6.7243713E-1,3E-1,4.980183E-1,5.8388286E0,9.220499E0,2.0798994E2,8.233251E0,7.0978336E0,4.469806E0,1.1105747E0,1.1360333E1,1.1113105E0,1.9586119E1,1.4485335E1,1.488242E1,6.655854E1,3.1040833E0,4.918299E-1,3.960333E0,6.1980647E-1,-2.33555E0,-8.7539166E-1,2.3424164E2,8.766573E0,8.091929E-1,1.5585334E1,-1.8236824E0,-2.2931686E-1,1.858451E1,2.9949316E1,1.970815E1,2.1599998E1,1.0227001E1,2E-1,1.1853334E0,1.3966584E1,-9.944517E-1,2.3835255E-1,-2.4354687E-1,-8.9475757E-1,2.300414E0,-5.2344877E-1,-4.557862E-1,6.4426196E-1,-1.6144654E0,-6.1639976E-2,1.6111784E-2,5.341648E0,-1.3100748E0,5.0623363E-1,-1.4628729E0,-1.7006567E-1,7.710108E-1,-7.9711413E-1,-1.6305012E0,-3.4092587E-1,2.4877787E0,9.9943876E-2,2.287579E0,-1.1613122E0,6.59736E-2,-8.8095814E-2],"split_indices":[2,0,2,0,0,3,3,0,1,3,2,1,1,3,3,0,1,0,0,2,3,0,0,0,0,0,0,2,0,2,3,0,0,0,0,0,0,3,2,0,0,0,0,2,2,2,2,0,1,0,0,0,0,0,0,0,0,0,0,0,0,0,0,0,0,0,0,0,0,0,0,0,0,0,0,0,0],"split_type":[0,0,0,0,0,0,0,0,0,0,0,0,0,0,0,0,0,0,0,0,0,0,0,0,0,0,0,0,0,0,0,0,0,0,0,0,0,0,0,0,0,0,0,0,0,0,0,0,0,0,0,0,0,0,0,0,0,0,0,0,0,0,0,0,0,0,0,0,0,0,0,0,0,0,0,0,0],"sum_hessian":[2.735E3,8.6E1,2.649E3,1.6E1,7E1,8E0,2.641E3,1.3E1,3E0,1.5E1,5.5E1,3E0,5E0,1.29E2,2.512E3,1E0,1.2E1,1E0,2E0,7E0,8E0,4.4E1,1.1E1,2E0,1E0,4E0,1E0,5.9E1,7E1,4.1E1,2.471E3,1.1E1,1E0,6E0,1E0,3E0,5E0,4E0,4E1,1E0,1E1,3E0,1E0,4.2E1,1.7E1,5.4E1,1.6E1,1E1,3.1E1,2E1,2.451E3,1E1,1E0,1E0,5E0,2E0,2E0,3.4E1,6E0,8E0,2E0,3.9E1,3E0,1.4E1,3E0,2.8E1,2.6E1,1.4E1,2E0,4E0,6E0,1.4E1,1.7E1,1E0,1.9E1,1.804E3,6.47E2],"tree_param":{"num_deleted":"0","num_feature":"4","num_nodes":"77","size_leaf_vector":"1"}},{"base_weights":[2.2390394E-2,-2.0312458E-1,1.9949257E-1,8.19253E-2,-1.0362571E0,6.603793E-1,-1.360168E-1,-1.5934501E-4,5.6700077E0,-5.7891464E0,-6.6702694E-1,4.7330217E0,6.12483E-1,1.3464963E0,-3.4953734E-1,-3.6620525E-1,4.6206737E-1,2.6378614E-1,5.3304186E0,-2.520973E0,-3.6951451E0,-8.224596E0,-4.757055E-1,2.8610697E-1,2.702503E0,-4.094466E0,2.2959743E0,-1.0895171E0,-1.478985E-2,-9.973769E-2,-3.0952308E0,2.3659189E0,-3.2715923E-1,3.525845E0,-1.653229E0,-5.3987656E0,-1.7425842E0,-2.7724526E0,-3.1846762E-1,1.1950352E1,-6.990917E-1,-2.762555E0,4.6422118E-1,-4.5845795E0,4.04462E0,-5.5155087E0,4.1913623E-1,6.7133837E0,1.8490278E0,1.5492179E0,-2.4021592E0,8.928532E0,-1.5001062E-1,-6.977842E-1,2.7807677E-2,3.0259514E-1,-2.1734881E0,1.1781385E0,7.0777144E-3,1.4115059E0,-2.3339732E-1,2.161282E0,-1.1340451E0,-2.302251E-1,-1.8128263E0,4.5747644E-1,-1.2024217E0,2.5825453E-1,5.7169213E0,-2.8843614E-1,9.34454E-1,2.481236E0,-1.4110348E0,1.2005408E0,7.079236E-2,6.2195987E-2,-2.461326E0,3.0006616E0,-7.340788E-2,-6.953991E-1,-1.7658442E0,8.931186E-1,-6.835505E-1,2.4100528E0,1.7670554E-1,-7.140294E-1,1.1721747E0,2.456016E-1,-9.421106E-1,4.964586E-1,6.149908E0,-1.8238726E-1,2.2238256E-1],"categories":[],"categories_nodes":[],"categories_segments":[],"categories_sizes":[],"default_left":[0,0,0,0,0,0,0,0,0,0,0,0,0,0,0,0,0,0,0,0,0,0,0,0,0,0,0,0,0,0,0,0,0,0,0,0,0,0,0,0,0,0,0,0,0,0,0,0,0,0,0,0,0,0,0,0,0,0,0,0,0,0,0,0,0,0,0,0,0,0,0,0,0,0,0,0,0,0,0,0,0,0,0,0,0,0,0,0,0,0,0,0,0],"id":17,"left_children":[1,3,5,7,9,11,13,15,17,19,21,-1,23,25,27,29,31,33,-1,-1,35,37,39,41,43,45,47,49,51,53,55,57,59,61,-1,63,65,-1,-1,67,69,71,73,75,77,79,81,-1,83,85,87,89,91,-1,-1,-1,-1,-1,-1,-1,-1,-1,-1,-1,-1,-1,-1,-1,-1,-1,-1,-1,-1,-1,-1,-1,-1,-1,-1,-1,-1,-1,-1,-1,-1,-1,-1,-1,-1,-1,-1,-1,-1],"loss_changes":[1.0931416E2,2.8601605E2,2.3714038E2,4.1190973E2,5.348959E2,4.5805225E2,2.815644E2,1.5007704E2,8.455747E2,8.9375E1,4.0962213E2,0E0,4.392023E2,5.88001E2,1.9245175E2,3.5965366E2,5.897817E2,2.077993E2,0E0,0E0,3.716211E1,4.1178864E1,7.8558093E2,3.04825E2,8.6941296E2,1.1135007E2,8.20277E2,8.419404E2,6.495363E2,1.9384761E2,7.5662744E2,4.2044635E2,6.343497E2,2.1535526E2,0E0,1.6240448E1,6.533195E1,0E0,0E0,3.7760822E2,2.791695E2,7.0275226E2,4.2619196E2,2.4454361E2,1.8934397E3,1.7624817E0,4.1285023E1,0E0,7.3555597E2,7.598009E2,3.8774982E2,6.393943E2,2.1636815E2,0E0,0E0,0E0,0E0,0E0,0E0,0E0,0E0,0E0,0E0,0E0,0E0,0E0,0E0,0E0,0E0,0E0,0E0,0E0,0E0,0E0,0E0,0E0,0E0,0E0,0E0,0E0,0E0,0E0,0E0,0E0,0E0,0E0,0E0,0E0,0E0,0E0,0E0,0E0,0E0],"parents":[2147483647,0,0,1,1,2,2,3,3,4,4,5,5,6,6,7,7,8,8,9,9,10,10,12,12,13,13,14,14,15,15,16,16,17,17,20,20,21,21,22,22,23,23,24,24,25,25,26,26,27,27,28,28,29,29,30,30,31,31,32,32,33,33,35,35,36,36,39,39,40,40,41,41,42,42,43,43,44,44,45,45,46,46,48,48,49,49,50,50,51,51,52,52],"right_children":[2,4,6,8,10,12,14,16,18,20,22,-1,24,26,28,30,32,34,-1,-1,36,38,40,42,44,46,48,50,52,54,56,58,60,62,-1,64,66,-1,-1,68,70,72,74,76,78,80,82,-1,84,86,88,90,92,-1,-1,-1,-1,-1,-1,-1,-1,-1,-1,-1,-1,-1,-1,-1,-1,-1,-1,-1,-1,-1,-1,-1,-1,-1,-1,-1,-1,-1,-1,-1,-1,-1,-1,-1,-1,-1,-1,-1,-1],"split_conditions":[5E-1,2.233161E1,9.710334E0,2.196E1,2.279684E1,7.9036193E0,8E-1,1.5629971E1,2E-1,1E-1,2.3249166E0,4.7330217E0,8.954083E0,1.7451878E2,1.1927002E1,3E-1,1.7057314E1,2.2148045E1,5.3304186E0,-2.520973E0,9.354085E0,2E-1,2.9561665E0,1.2522619E1,1.1812533E2,1.7762415E1,1.7955998E2,2.004201E2,1.19645E1,6.0103413E1,1.3479583E1,1.3512417E1,3.343667E0,2.4520578E2,-1.653229E0,4.29575E0,1.2304082E1,-2.7724526E0,-3.1846762E-1,2.3664352E1,2.7052826E2,4.370208E1,1.4458382E1,2.6000001E0,2.1567438E2,1.1183201E1,6.2087173E1,6.7133837E0,1.4081478E1,1.22332085E2,1.0060333E1,2.4847513E2,2.5986166E1,-6.977842E-1,2.7807677E-2,3.0259514E-1,-2.1734881E0,1.1781385E0,7.0777144E-3,1.4115059E0,-2.3339732E-1,2.161282E0,-1.1340451E0,-2.302251E-1,-1.8128263E0,4.5747644E-1,-1.2024217E0,2.5825453E-1,5.7169213E0,-2.8843614E-1,9.34454E-1,2.481236E0,-1.4110348E0,1.2005408E0,7.079236E-2,6.2195987E-2,-2.461326E0,3.0006616E0,-7.340788E-2,-6.953991E-1,-1.7658442E0,8.931186E-1,-6.835505E-1,2.4100528E0,1.7670554E-1,-7.140294E-1,1.1721747E0,2.456016E-1,-9.421106E-1,4.964586E-1,6.149908E0,-1.8238726E-1,2.2238256E-1],"split_indices":[1,2,0,2,2,2,1,2,1,1,0,0,0,3,0,1,2,2,0,0,0,1,0,2,3,0,3,3,0,3,2,0,0,3,0,0,0,0,0,2,3,3,2,1,3,2,3,0,2,3,0,3,2,0,0,0,0,0,0,0,0,0,0,0,0,0,0,0,0,0,0,0,0,0,0,0,0,0,0,0,0,0,0,0,0,0,0,0,0,0,0,0,0],"split_type":[0,0,0,0,0,0,0,0,0,0,0,0,0,0,0,0,0,0,0,0,0,0,0,0,0,0,0,0,0,0,0,0,0,0,0,0,0,0,0,0,0,0,0,0,0,0,0,0,0,0,0,0,0,0,0,0,0,0,0,0,0,0,0,0,0,0,0,0,0,0,0,0,0,0,0,0,0,0,0,0,0,0,0,0,0,0,0,0,0,0,0,0,0],"sum_hessian":[2.735E3,1.203E3,1.532E3,8.97E2,3.06E2,6.45E2,8.87E2,8.85E2,1.2E1,2.1E1,2.85E2,1E0,6.44E2,1.11E2,7.76E2,4.94E2,3.91E2,9E0,3E0,8E0,1.3E1,6E0,2.79E2,5.58E2,8.6E1,1.6E1,9.5E1,2.41E2,5.35E2,4.51E2,4.3E1,1.14E2,2.77E2,6E0,3E0,6E0,7E0,5E0,1E0,4E0,2.75E2,3E1,5.28E2,1.3E1,7.3E1,1.2E1,4E0,1E0,9.4E1,8E1,1.61E2,7E0,5.28E2,3.5E1,4.16E2,2.2E1,2.1E1,6.8E1,4.6E1,2.2E1,2.55E2,4E0,2E0,1E0,5E0,3E0,4E0,2E0,2E0,2.58E2,1.7E1,4E0,2.6E1,3.1E1,4.97E2,6E0,7E0,3E1,4.3E1,2E0,1E1,2E0,2E0,1.5E1,7.9E1,3E1,5E1,3E1,1.31E2,5E0,2E0,3.49E2,1.79E2],"tree_param":{"num_deleted":"0","num_feature":"4","num_nodes":"93","size_leaf_vector":"1"}},{"base_weights":[2.4389446E-2,-1.5877625E0,4.4659063E-2,2.1984935E-1,-1.9070007E0,5.281547E0,2.3251552E-2,5.674005E-1,-4.927148E-1,-2.4044366E0,-5.344279E-1,-1.3365844E0,7.940318E0,-3.6709723E0,3.9771847E-2,-1.4082524E0,4.7541535E-1,-1.0344017E0,-2.6659505E0,-1.5147126E0,1.0961776E0,1.1824658E1,-1.1309749E0,2.638324E0,-2.5663548E0,5.008525E-1,-2.8056938E-2,-1.0481594E-1,-4.9342367E-1,-8.236949E-1,1.0216469E0,-3.1694534E0,-1.2146199E0,2.6752853E-1,-2.4654977E0,5.208483E0,3.3315434E0,4.9535193E0,-3.4387033E0,2.0513147E-1,4.109859E0,-4.079578E0,1.2173121E-2,3.98053E-1,6.168809E-2,-3.6229685E-1,-1.1998186E0,-7.400079E-1,2.5790522E-1,-1.12512305E-1,-8.425743E-1,-3.8709098E-1,1.5906781E0,-1.5484782E0,5.1792884E-1,1.3502821E-1,-1.4368348E0,-6.0468036E-1,1.8144832E0,-2.3289442E-2,-1.994014E0,3.8703807E-2,-2.5784323E-1],"categories":[],"categories_nodes":[],"categories_segments":[],"categories_sizes":[],"default_left":[0,0,0,0,0,0,0,0,0,0,0,0,0,0,0,0,0,0,0,0,0,0,0,0,0,0,0,0,0,0,0,0,0,0,0,0,0,0,0,0,0,0,0,0,0,0,0,0,0,0,0,0,0,0,0,0,0,0,0,0,0,0,0],"id":18,"left_children":[1,3,5,7,9,11,13,-1,15,17,19,-1,21,23,25,27,-1,29,31,33,-1,35,-1,37,-1,39,41,-1,-1,-1,43,45,47,-1,49,-1,51,-1,53,55,57,59,61,-1,-1,-1,-1,-1,-1,-1,-1,-1,-1,-1,-1,-1,-1,-1,-1,-1,-1,-1,-1],"loss_changes":[8.9477104E1,2.0039253E1,3.0290714E2,8.078133E0,1.8515244E1,3.201443E2,1.644989E2,0E0,1.174152E1,4.766281E0,4.248665E1,0E0,4.539568E2,3.9231024E2,8.389238E1,4.2700624E-1,0E0,2.0397127E1,8.573059E0,2.0502954E1,0E0,2.7134076E2,0E0,5.6263336E2,0E0,3.662941E2,3.8129016E2,0E0,0E0,0E0,4.7430444E-1,1.4708221E1,1.7703655E1,0E0,3.2498703E0,0E0,4.3274925E1,0E0,5.340592E1,3.9244748E2,3.2090723E2,2.357753E2,2.3608173E2,0E0,0E0,0E0,0E0,0E0,0E0,0E0,0E0,0E0,0E0,0E0,0E0,0E0,0E0,0E0,0E0,0E0,0E0,0E0,0E0],"parents":[2147483647,0,0,1,1,2,2,3,3,4,4,5,5,6,6,8,8,9,9,10,10,12,12,13,13,14,14,15,15,17,17,18,18,19,19,21,21,23,23,25,25,26,26,30,30,31,31,32,32,34,34,36,36,38,38,39,39,40,40,41,41,42,42],"right_children":[2,4,6,8,10,12,14,-1,16,18,20,-1,22,24,26,28,-1,30,32,34,-1,36,-1,38,-1,40,42,-1,-1,-1,44,46,48,-1,50,-1,52,-1,54,56,58,60,62,-1,-1,-1,-1,-1,-1,-1,-1,-1,-1,-1,-1,-1,-1,-1,-1,-1,-1,-1,-1],"split_conditions":[7.999167E-1,1.0239453E1,1.1853334E0,-4.0008333E-1,1E-1,1.2287555E1,1.5290833E0,5.674005E-1,9.028754E0,2.1285474E2,2.8953375E2,-1.3365844E0,2.784866E2,1.433234E1,1.27279215E1,7.353611E0,4.7541535E-1,4.4783333E-1,1.433234E1,7.3586075E1,1.0961776E0,3E-1,-1.1309749E0,2.2931229E2,-2.5663548E0,1.257426E1,1.2979984E1,-1.0481594E-1,-4.9342367E-1,-8.236949E-1,1.2641076E1,-4.0008333E-1,-4.0008333E-1,2.6752853E-1,3E-1,5.208483E0,5E-1,4.9535193E0,1.3755579E1,1.2413476E1,9.818667E0,1.845557E2,2.7287094E2,3.98053E-1,6.168809E-2,-3.6229685E-1,-1.1998186E0,-7.400079E-1,2.5790522E-1,-1.12512305E-1,-8.425743E-1,-3.8709098E-1,1.5906781E0,-1.5484782E0,5.1792884E-1,1.3502821E-1,-1.4368348E0,-6.0468036E-1,1.8144832E0,-2.3289442E-2,-1.994014E0,3.8703807E-2,-2.5784323E-1],"split_indices":[0,2,0,0,1,2,0,0,2,3,3,0,3,2,2,2,0,0,2,3,0,1,0,3,0,2,2,0,0,0,2,0,0,0,1,0,1,0,2,2,0,3,3,0,0,0,0,0,0,0,0,0,0,0,0,0,0,0,0,0,0,0,0],"split_type":[0,0,0,0,0,0,0,0,0,0,0,0,0,0,0,0,0,0,0,0,0,0,0,0,0,0,0,0,0,0,0,0,0,0,0,0,0,0,0,0,0,0,0,0,0,0,0,0,0,0,0,0,0,0,0,0,0,0,0,0,0,0,0],"sum_hessian":[2.735E3,3.3E1,2.702E3,5E0,2.8E1,1E1,2.692E3,1E0,4E0,2E1,8E0,2E0,8E0,1.1E1,2.681E3,3E0,1E0,4E0,1.6E1,7E0,1E0,6E0,2E0,5E0,6E0,3.43E2,2.338E3,1E0,2E0,2E0,2E0,1.1E1,5E0,2E0,5E0,3E0,3E0,1E0,4E0,3.18E2,2.5E1,2.2E1,2.316E3,1E0,1E0,4E0,7E0,3E0,2E0,1E0,4E0,1E0,2E0,3E0,1E0,3.04E2,1.4E1,6E0,1.9E1,9E0,1.3E1,2.043E3,2.73E2],"tree_param":{"num_deleted":"0","num_feature":"4","num_nodes":"63","size_leaf_vector":"1"}},{"base_weights":[1.759068E-2,-1.4149296E-1,2.2500059E-1,-6.67491E-2,-3.5731583E0,1.6653383E0,-3.554206E-2,1.4779988E-1,-8.32979E-1,-6.8073206E0,-4.9983835E-1,4.964406E0,5.1297414E-1,-1.5331785E-1,3.1453917E0,-4.7879934E-2,1.4306177E0,-1.1314946E0,3.4248092E0,-3.0727882E0,-2.6222286E0,3.122879E0,-2.5141175E0,2.732214E0,1.4085637E1,-6.138072E0,9.214656E-1,5.8575653E-2,-2.2053702E0,5.03635E0,-5.8756065E-1,6.9380306E-2,-5.6852593E0,1.0017682E1,7.7831626E-1,-5.4228055E-1,-3.5873356E0,4.247284E0,2.2395513E0,-1.9919767E0,-3.1795016E-1,-3.794258E0,2.503199E0,-5.1696367E0,4.9381638E0,5.5672584E0,-1.0439863E0,-2.1582985E0,1.883586E-1,-7.633918E-1,2.444108E0,-1.8117648E-1,1.7428468E0,5.2086824E-1,-3.4889472E0,2.4277596E0,5.241708E0,7.2043266E0,-3.6455593E0,-8.277621E-1,5.1223267E-2,-1.259091E-1,-2.3290515E0,1.2481316E-1,4.633469E0,1.4353019E0,-1.54885E-1,-2.9933834E-1,1.63045E0,-1.544705E0,4.322922E-1,2.2091622E-2,2.2926178E0,6.2957007E-1,-7.885451E-1,-1.691491E0,-2.6439193E-1,9.4786185E-1,-2.4002292E0,9.59077E-1,4.0059695E0,4.2954957E-1,-8.9934343E-1,1.3095725E0,-5.5008435E-1,4.9063587E0,5.9771776E-1,-1.3644771E-2,-6.555585E-1,1.9947935E0,1.7359203E-1,-1.4258654E0,6.9977117E-1,-2.2355762E0,-8.547239E-1,1.0735214E0,-1.7006727E0,6.593365E-1,2.442173E0,-1.5442731E0,4.7250193E-1],"categories":[],"categories_nodes":[],"categories_segments":[],"categories_sizes":[],"default_left":[0,0,0,0,0,0,0,0,0,0,0,0,0,0,0,0,0,0,0,0,0,0,0,0,0,0,0,0,0,0,0,0,0,0,0,0,0,0,0,0,0,0,0,0,0,0,0,0,0,0,0,0,0,0,0,0,0,0,0,0,0,0,0,0,0,0,0,0,0,0,0,0,0,0,0,0,0,0,0,0,0,0,0,0,0,0,0,0,0,0,0,0,0,0,0,0,0,0,0,0,0],"id":19,"left_children":[1,3,5,7,9,11,13,15,17,19,21,23,25,27,29,31,33,35,37,39,-1,-1,41,43,45,47,49,51,53,55,57,59,61,63,65,67,69,-1,71,-1,73,75,-1,77,79,-1,81,-1,-1,83,85,87,89,91,93,95,-1,97,99,-1,-1,-1,-1,-1,-1,-1,-1,-1,-1,-1,-1,-1,-1,-1,-1,-1,-1,-1,-1,-1,-1,-1,-1,-1,-1,-1,-1,-1,-1,-1,-1,-1,-1,-1,-1,-1,-1,-1,-1,-1,-1],"loss_changes":[9.03076E1,3.970737E2,4.4587924E2,2.4950858E2,3.2460474E2,6.893677E2,3.7774173E2,2.9778006E2,4.2585254E2,8.8669495E1,4.2171457E2,9.184509E2,3.7515378E2,4.227709E2,2.57078E2,6.812661E2,8.716158E2,4.4807666E2,2.4815836E2,6.667697E1,0E0,0E0,2.540579E2,7.053409E2,6.282959E2,6.1689545E1,3.32807E2,3.5647406E2,3.2025696E2,7.3615216E2,3.3602237E2,2.9005493E2,2.2654742E2,5.667859E2,7.648408E2,6.9153284E2,4.7857648E2,0E0,2.4516583E2,0E0,3.343326E1,7.560512E1,0E0,2.3750735E2,4.115431E2,0E0,1.8804308E1,0E0,0E0,3.4830844E2,3.9469708E2,2.1010492E2,6.2448773E2,2.9772052E2,1.3598718E2,2.1592976E2,0E0,8.582306E-1,8.652127E1,0E0,0E0,0E0,0E0,0E0,0E0,0E0,0E0,0E0,0E0,0E0,0E0,0E0,0E0,0E0,0E0,0E0,0E0,0E0,0E0,0E0,0E0,0E0,0E0,0E0,0E0,0E0,0E0,0E0,0E0,0E0,0E0,0E0,0E0,0E0,0E0,0E0,0E0,0E0,0E0,0E0,0E0],"parents":[2147483647,0,0,1,1,2,2,3,3,4,4,5,5,6,6,7,7,8,8,9,9,10,10,11,11,12,12,13,13,14,14,15,15,16,16,17,17,18,18,19,19,22,22,23,23,24,24,25,25,26,26,27,27,28,28,29,29,30,30,31,31,32,32,33,33,34,34,35,35,36,36,38,38,40,40,41,41,43,43,44,44,46,46,49,49,50,50,51,51,52,52,53,53,54,54,55,55,57,57,58,58],"right_children":[2,4,6,8,10,12,14,16,18,20,22,24,26,28,30,32,34,36,38,40,-1,-1,42,44,46,48,50,52,54,56,58,60,62,64,66,68,70,-1,72,-1,74,76,-1,78,80,-1,82,-1,-1,84,86,88,90,92,94,96,-1,98,100,-1,-1,-1,-1,-1,-1,-1,-1,-1,-1,-1,-1,-1,-1,-1,-1,-1,-1,-1,-1,-1,-1,-1,-1,-1,-1,-1,-1,-1,-1,-1,-1,-1,-1,-1,-1,-1,-1,-1,-1,-1,-1],"split_conditions":[2.2640176E2,2.2477635E2,2.3424164E2,4.5E0,9.000001E-1,7.5957513E0,3.657855E1,2.5999997E0,1.709575E1,1E-1,8.233251E0,7.172833E0,7.904082E0,3.0432245E1,4.065291E1,2.3E0,5.0290833E0,2.1285474E2,4.7E0,8.702002E0,-2.6222286E0,3.122879E0,1.7543665E1,2.284567E2,8.6E0,5.7999997E0,2.514852E1,4.399999E0,6.2478333E0,8.999999E0,7E-1,2.779084E0,2.1659916E1,7.443692E1,1.8844202E1,2.0946509E2,3.7123665E1,4.247284E0,1.1699999E1,-1.9919767E0,2.3281315E1,2.2596007E2,2.503199E0,1.7728332E0,6.2000003E0,5.5672584E0,7.212416E0,-2.1582985E0,1.883586E-1,1.3570615E1,2.5223133E1,3.0999997E0,2.4181247E2,2.4086195E2,6.931166E0,2.738809E2,5.241708E0,3E-1,1.1200001E1,-8.277621E-1,5.1223267E-2,-1.259091E-1,-2.3290515E0,1.2481316E-1,4.633469E0,1.4353019E0,-1.54885E-1,-2.9933834E-1,1.63045E0,-1.544705E0,4.322922E-1,2.2091622E-2,2.2926178E0,6.2957007E-1,-7.885451E-1,-1.691491E0,-2.6439193E-1,9.4786185E-1,-2.4002292E0,9.59077E-1,4.0059695E0,4.2954957E-1,-8.9934343E-1,1.3095725E0,-5.5008435E-1,4.9063587E0,5.9771776E-1,-1.3644771E-2,-6.555585E-1,1.9947935E0,1.7359203E-1,-1.4258654E0,6.9977117E-1,-2.2355762E0,-8.547239E-1,1.0735214E0,-1.7006727E0,6.593365E-1,2.442173E0,-1.5442731E0,4.7250193E-1],"split_indices":[3,3,3,1,1,0,2,1,0,1,0,0,0,2,2,1,0,3,1,0,0,0,0,3,1,1,2,1,0,1,1,0,2,3,2,3,2,0,1,0,2,3,0,0,1,0,0,0,0,2,2,1,3,3,0,3,0,1,1,0,0,0,0,0,0,0,0,0,0,0,0,0,0,0,0,0,0,0,0,0,0,0,0,0,0,0,0,0,0,0,0,0,0,0,0,0,0,0,0,0,0],"split_type":[0,0,0,0,0,0,0,0,0,0,0,0,0,0,0,0,0,0,0,0,0,0,0,0,0,0,0,0,0,0,0,0,0,0,0,0,0,0,0,0,0,0,0,0,0,0,